function [y1] = rtmpcnn(x1, nnparam)
%RTMPCNN neural network simulation function.
%
% Auto-generated by MATLAB, 26-Jul-2022 09:36:23.
% 
% [y1] = rtmpcnn(x1) takes these arguments:
%   x = 128xQ matrix, input #1
% and returns:
%   y = 3xQ matrix, output #1
% where Q is the number of samples.

%#ok<*RPMT0>

% ===== NEURAL NETWORK CONSTANTS =====

% Layer 1
b1 = [-0.80713676688098723311;0.49422641773440700863;-0.50905263939993261602;0.32462280157125511515;-0.37255626115218820615;-0.50115574372195781372;-0.54532264891149606623;0.068963807125109077845;-0.018977897205218807741;-0.4509458376877643615;-0.57248907433419549129;-0.21194299450327469536;0.56460017342232149407;0.014380734880629972641;0.25267001357684254481;-0.12421734455444100043;0.38059941459505852723;-0.15377586289186825907;0.55040302966835208398;-0.57991225891790354474;0.64952753937487184288;-0.25989547110860078405;0.071759435006128136081;-0.659573631855132958;0.55038857751519443262;0.41301649933046469254;0.69247828938146405164;-0.20305356406784325074;0.21711009339466771917;-0.091152330826119468132;-0.40590796906118375986;-0.53298699892955059276];
%IW1_1 = [-0.43863727703255350754 0.80838557374228647845 -0.68921250204138906348 -0.02536506109872482817 0.43351597127511087848 0.8764941518860198677 -0.63682034120510855324 -0.45626895014329038602 -0.56934936510057765346 -0.70237396153065079218 -0.29893199807844217375 0.25027513625882846782 -0.21867732719074939318 0.44163297529164546873 -0.1534929929445731922 -0.76542599690557833192 0.22317016799749134215 0.55795580790809395921 -0.40078813657938394677 -0.80477994839424638052 -0.87471142724978334648 -0.92383922342389612758 -0.15047348699707208119 0.27073963186185645569 0.15051265900429156019 -0.59000617353423789879 -0.50726997975063059521 -0.34384333548758938548 0.11773276367008489451 0.87526129377482564387 -0.97506862072769040495 -0.71187878159221029684 0.86949302180424314912 0.6603222035358800035 -0.25779710184055626421 -0.43450903950039321266 0.46269408040376180935 -0.58544370244084187327 -0.68763593628394703572 -0.094581115447267771756 0.72776940920232857657 0.30600841038406012551 0.64540724402813465232 0.22059647023758488515 0.81261550831321271993 0.75880836416271346678 -0.26670928631105783602 -0.85150679030177789386 0.79548961785413130343 -0.72065199068458185572 -0.90209008912282429016 0.57727788281105096857 0.1669317074852605387 -0.48263312328641339022 0.51547653677680771445 -0.0053922939990274088018 -0.48489334456442789723 -0.77517733112112718885 0.75761040794325351655 -0.96800365684257783094 0.020436840159509861437 0.29700853936794557875 0.90291993355630340012 -0.82522980170962667579 -0.57991638171112391831 0.9376673352018287666 0.81151517929232386273 0.55286695408832753351 -0.7821357585987231964 0.21019116102398838208 0.18596633912917592824 0.9155453763410594803 0.96609053547534373685 0.69993611738931549304 -0.71451187223254364334 0.30413771837406589071 -0.82218326947526598758 -0.95867140479843548917 -0.20815288508229246034 0.39924595899345360905 -0.75999955463117419008 -0.46045704094792494487 -0.72420584216529215738 -0.21724142351038566723 0.063248682786714915949 0.27489851119715802419 0.54167511178063310062 0.3587104145514179443 0.71120692904937743428 -0.96696546290073559504 0.043384294984089244451 -0.32508263368043799346 0.69709320677940445066 0.084479555902189140681 0.97931706221963943371 0.43216561614753223886 0.29116431114334329067 0.36423141861281083109 0.2668838651084757263 0.72567742452763361882 0.7523062680311261019 -0.38540767648962015457 -0.84972962823284325928 0.37148717853108004228 0.59079733186855754035 0.076107325650761392666 -0.090746906625844170335 -0.085374100658656137952 -0.84955489701442932216 -0.61100232831252498933 -0.39803784321826585213 0.92748908655826411973 0.47356078081646191258 0.77647264884662159368 -0.5154840266277429528 -0.76304361173265156104 0.39906303883507376895 -0.34957869261422747087 0.20030347171861873079 0.71340729646817990783 0.11687624069711710639 -0.7123042574249358605 -0.82173113791843488407 0.28747756509135036218 0.48674933799222119823 0.0074164970242791561361 -0.071020208027690046038 -0.27716077063076038911;0.0021827296930391230576 -0.14061217789644184228 -0.67572864295659795797 0.63257935915556851025 -0.010182048350164955158 -0.42067104240286551375 0.12808997759262305549 0.96434489626585351285 0.90493086643591735818 -0.34820776178674717194 -0.47881746293670685022 -0.49612717095183045402 -0.040097304327230021137 0.48584054623991024258 0.8120571751594325427 -0.74113190796266537053 -0.67448014405210765521 -0.92955271547791151754 0.084715820940317307364 -0.54385700291931671213 -0.98745584352766058167 0.50951204182909903828 -0.71104743457634700388 0.40155031554169728913 -0.018053997372095891005 -0.30798462723211011971 0.27246681943710104878 0.13402139280435479418 0.51538752997564019065 0.83057292364614954128 -0.78456356811880667568 0.46670488926359177118 0.026701637261503034793 -0.45795795724092230872 -0.080427187609808242774 -0.16660506505997332849 -0.93310260236636977105 -0.28886414877307986515 0.63451099141389633029 0.75653053776279932663 1.0122150663950826299 0.89761249605954229747 -0.67751586095249594077 -0.93738697625434930227 -0.91263380583985409533 -0.18102407796077696345 0.88055936222659036972 0.17592783377957604829 0.56511229696262976763 -0.90547167508894488286 -0.94050040904620824112 0.73151113918633758892 0.16899963926532324265 0.97539569567854489396 0.22846141327073157812 0.58147581544755910787 -0.46643861056802676801 0.87260821304813618315 0.5908126986534404379 -0.29457970190193610849 -0.87563617480612099264 0.50927093605896189832 0.78226233587395521685 0.82377243982652648135 -0.67564930976691028874 0.41862482225249619816 0.43391216870094673208 0.75385370644696003684 -0.83529529107409516975 -0.53842286929696991926 0.95618800173671414377 0.82935027960597684782 0.99172130756686993625 -0.65445794297732418077 -0.89234359179827471564 -0.87125766536029436438 0.1524697075939497326 -0.6452514941240459212 -0.55981248453383503083 0.76773972038934767959 0.71150151150690654767 -0.39626794901157397222 -0.36217694446031239996 -0.12052888026767812069 0.093240267548022739974 0.69178936302176519124 -0.18748256042956398804 1.0068518728160480435 0.068386478794376578949 0.98007648237568478766 0.2364517639051597897 0.63690126251140088964 0.38351302033355250121 -0.47072357345971066467 0.33898318315837100423 -0.052564360011027704001 -0.28865170544044843615 -0.29045920832789756671 -0.64910156319621770127 -0.17788397382357251653 0.26488487809955107988 0.58662097595362949765 0.48267778108609526999 -0.83747271426343872225 -0.47342661068153446546 0.52278385247862724228 -0.37887474899079420787 0.91042316452344951294 0.029555833706740367722 -0.21208739480295432656 -0.944574291118117082 -0.84925247739664100344 -0.29456656593762609031 0.54274648025658223105 0.74420971599821028608 -0.012759589179522435112 0.69007476418630508963 0.75637047269051660425 -0.91659625465584726456 -0.41534447651275230307 -0.052997035104907413983 -0.39682518979020348082 0.061257948073909392062 0.26493008339127743778 0.67302456484382533475 0.77962742226491021924 -0.31661365923372930542 0.05393416639993629802;-0.77357923758579549833 -0.16896379686507545514 -0.52032613959096774003 -0.8594641156362574641 0.089443338346935741257 0.66093151677114736486 -0.7514172183805709615 0.435326180060418233 -0.72288844390904638537 -0.9217497624564399139 0.65485163224088238643 -0.23134752032703520541 -0.6672662986284485509 -0.78528174081240265103 -0.98209291820135247164 0.36771992437937695009 0.58102602833690397688 -0.15576598651291284625 -0.49178584728934704451 0.06783443931564536733 -0.38789151887673800623 -0.22975514332134094886 0.064375114314138004445 0.94588919895074696775 -0.19428458515729052358 0.0068497369913174122047 0.0045203545147107782043 -0.54921006432075647474 -0.60650758606095389602 -0.63508267775637960995 0.72652109765065242541 -0.24218828910621836847 0.54134493818184958869 0.82337629002621715024 0.38590316572578808874 -0.045048590954459122315 0.49508718706323140424 0.40853232447951803863 0.95646237546143830777 0.68301375782202189413 0.60737572198518496869 -0.56605721762058736068 -0.39295561747970464417 0.11073628112760580677 0.37219328900964998574 0.21377935727262675769 0.55809436900043563057 -0.024985479408052180261 -0.14561812168167787007 -0.032918234241825716779 -0.96252299779196137663 -0.91009131583290403533 -0.46451616275347817897 0.44430177772257195556 0.71430145749543894063 -0.69872777813209019371 -0.049401416595587388514 0.14964394423861859806 0.30803794320968957976 0.010556408763447100441 0.24184235666862008429 0.40794254024020770721 -0.44533584081576926827 -0.21745689218482833205 0.39022354348738241825 0.84655763288074825645 -0.73928693552368129893 -0.32867752573014197282 -0.25717500642637758368 0.93271512035124759521 0.79765928235443639416 0.89987353379467260872 0.52491000118023856125 -0.83036808244801685319 -0.41381320079959138525 -0.99907720351185047569 -0.51243509746167226204 -0.10958216902554251959 0.19670392468231256977 0.26760208237521898589 -0.15765695552177816374 0.54702083394055822652 0.86480599753753728542 -0.35538286505027150142 0.98134002604073122811 0.62504434656168905704 -0.68597162058171523569 -0.69044920677419274746 -0.84632244658765221068 0.88189229295003479514 0.47028241754701682886 0.21838093776054590123 0.84791390299637847683 -0.074479201738389733123 -0.62186919297408849161 -0.45413398528360149342 -0.86660463824586964066 0.57413989100141549216 0.43315809177017783327 -0.035631325880846054233 0.29783001341897330505 0.4770949135997193391 0.44604844759338013738 -0.587778707629853292 0.25532458934909807446 0.69325599831923434557 -0.94066486281468275621 0.50577095492091173057 0.26514724594631511323 -0.21178406882578704185 -0.80115501224296048477 0.99519254929221467876 -0.17401272882977925072 -0.77532149617133216957 0.61893981819413235179 -0.23807499257422071182 -0.20813174773657006078 -0.98164868715290243273 0.17991283387379231051 -0.68885578474043729358 -0.60791278034848739154 -0.87178948595352601103 -0.45401161191307304321 -0.049961632795869181933 0.7556299962959514005 0.38817206021695893625 -0.72732752780619569499 -0.78170831753671876641;0.32783353463575615194 0.082494746510817895668 0.59823419304917213601 0.25842028436347663778 -0.42358233628054065001 -0.7264943102395666763 0.15118782568401623045 0.52518777935743998775 0.28769173275529458245 -0.86022750342346609997 -0.45315789208225965012 -0.40317670828368346037 0.11362560071047655974 0.7506849657717844515 0.35152069356173365478 0.42252580160837838186 -0.70819975468787155215 -0.69160979383314646896 -0.49401382653441827664 0.23875022069881857156 -0.52930030983216980189 -0.16390690759461756798 0.83529829363091101513 -0.17305129820308540189 -0.99537804337263446897 0.84151158724741459416 -0.73107489715557782972 0.096635491372862869497 0.91272341450492433523 -0.70828743402522831296 -0.89731270763898640652 -0.34966124299106771112 0.096607352322686912416 0.33379872873152227619 -0.30503211268690244573 -0.96514556870854995019 0.88320574171279786491 -0.79832496913218342627 -0.19840112286147992826 0.15190823315984625097 -0.70222107389114452047 0.19206603206250960625 -0.68433132607742863662 0.067717457298765548757 -0.46277388011751208197 -0.51389416181323244182 0.041230755500458293739 -0.55217213144452115259 0.42875467413239398695 0.36400263303382907054 -0.1580022463072023875 -0.19400740849419162437 -0.73770829519262615115 -0.38573414173458075993 0.85566724107364167118 0.17770089697403901319 -0.10788118161014170759 -0.45388722478860166198 -0.74461527623192202974 0.065818322362811043647 -0.48105431477145499386 -0.31213412535364648548 -0.39483182606630706779 0.79604320481686663413 -0.58466262946571045944 -0.1889724405048209821 -0.863480716978618279 0.49172009356540113956 0.28356529481414161076 0.26052473677139142971 -0.45320880274524588671 0.26363156128370524023 -0.29407435031385364965 -0.576060491737928837 -0.20829310265826128656 0.877942631945547447 0.75069828585209807947 -0.92133219103666474936 0.26176708633084544431 -0.17463202700780300347 -0.9028156165211729256 0.37565919987336915398 0.45602770774823131461 0.32333343376170464722 0.99104265441712446894 -0.052238737321374850708 -0.52066441602342483641 0.30000247627935272554 0.99459996190723853893 -0.2717273248764819904 0.15075652762847391308 -0.59575440183912453662 0.27139155258463776299 -0.01672972974992870121 0.96028671479251337395 0.36674792339124984153 -0.35503945365744171703 0.088576982516302971149 0.36500652141692713215 0.59788159413614638815 0.33420510031938244211 -0.080976714236263624969 0.53962139417309429312 0.56661369132336658616 0.19963329107765037662 0.8191773331651555079 -0.36793333456675214599 0.97991523602811869686 0.96236493890549712482 -0.88010786861860346164 0.15321586435117562353 0.87518203321731191657 0.21400095994141765665 -0.89303593957462523711 0.84421515043939865386 -0.3105352038424189498 -0.92080121532945602425 0.63916674835012154965 0.9636747422626901205 -0.97676377161705607577 0.47647527426244340454 0.57725335961089019321 0.90127646242025383216 0.55780502433900558401 0.86005004011416308352 -0.75402076600232326165 0.0098024423297413676437 -0.6030356298542369764;0.14412111012370609764 0.62724054497202530456 0.017548010545455738907 0.76980636906657107232 -0.66830639127680147027 0.58901864995627950528 0.37524587437663159406 -0.31728780027887881765 -0.18758725391385944192 -0.93049226768244142072 0.53679321414522562783 -0.71315273675403401121 -0.89864028107087734476 0.73520966587517899704 0.87732934665880013547 -0.19086383731693956634 0.23856151621999099888 0.015347878190108854568 0.50420827562695591517 -0.13332126673062782984 -0.071371164891304683664 -0.26933448887049205034 -0.78312780029695172601 -0.53034010487250982102 -0.3505206097162736345 0.84929400020452883169 -0.56948096647841084383 -0.65282904029241040078 -0.9570755238744650395 0.71843443193562195326 -0.98161093900800966416 -0.96391751500799749408 -0.53124032436885681996 -0.66943043265495383309 -0.71043258051627544702 0.38314469469355416642 0.049113712894595540348 0.14851636129883671877 -0.77909502035330668868 0.56154010961139677605 0.11212540604414855672 -0.84185483424615425996 -0.28186810542160345427 0.5745561806857522047 -0.64767784862080279851 0.010030730476223936876 0.63374143649706149439 0.82456493095015281902 -0.84965727839311244729 -0.85478368236955892812 0.56924031004829167557 -0.78774130537511721784 0.3444907068266829242 0.42666263714410601615 0.032405460644829853223 -0.4712723070709279316 0.6489902413981794016 -0.98771698946843322631 -0.11553780497013299566 -0.19423537334026530488 -0.37449552521233053781 0.61986948023146837272 -0.60982972905779120332 0.48338246845101595639 0.94174992393835732507 -0.82208495358798261421 -0.24742109658036848252 -0.78129829311179443962 0.29238502056402149165 -0.60946797062966684422 0.29262983397868835844 -0.59684882744932199472 0.43001871768895183479 -0.58468149124580315323 0.1426789758671558328 0.84400022056154178074 0.87457498905944963674 -0.70835112027773128318 0.79859014393178351376 -0.076986985543796349063 0.14364915484796592082 -0.72549640235734003113 0.744327638759026744 0.3238476293099872283 -0.4722521299874240519 -0.5199331455443805261 -0.25194749366706603588 -0.15209886656501714342 -0.68427710320876955485 0.50338572591472496853 -0.75612575743967647135 0.86196417550649440109 0.087199205657758183108 0.30477037871802514779 0.10090386343280766113 -0.34439825437155957566 0.9200138547867779959 -0.52340444901908567132 -0.63976511649040568308 -0.89794610306112843112 -0.86184182383195850896 0.60379702760376274817 0.64149337109014004099 -0.27942971089773060989 0.74242769989047507906 -0.017360634648496686694 0.88638896001550548931 -0.9718753933781483223 -0.72667913447754561851 -0.49941920432528785767 -0.18391421613609471031 0.09010015869713505765 -0.56812834489628016854 -0.41412422781808455596 -0.52837334380475886597 0.15202162941120600514 0.014219415919926037262 0.18802645176229915158 -0.90680798658131966938 0.2019104499163224542 0.33930303113306847784 -0.35443293074220316718 -0.85651792654132408167 -0.88373330352526568987 -0.40820053567123881777 0.46143621073221030571 -0.88539195117088986819 -0.12342564465956940012;-0.71393350919383413711 -0.015540080234774489298 0.95175314735782867714 0.66949171539574514611 0.31335273025554188919 -0.67727390125272068921 -0.73081462512430017675 -0.20026763245878242969 -0.9501675968425349339 0.12700872770330051686 -0.81673103568684934928 -0.73795895537317335311 0.36263601767189945768 -0.87733760001858795974 0.27140973857020234128 -0.98709213572935827763 -0.35351052690778228538 -0.64946766696935243068 -0.4818641529657587963 0.08428857304766323999 -0.45988571935834920978 -0.36326046909458731271 -0.54522209670465171527 -0.67850315013968365285 -0.27805928093735876594 -0.14176849033937588551 -0.61856204665772041018 0.39620472847503407365 -0.82802837032053444588 -0.12929781573572829423 -0.63668322824087719702 0.19821386599061030509 -0.2650153271589676951 0.5691946037091561994 -0.27229456972080279265 0.14130747720737102391 0.32940900046791110611 0.67033949123537750481 0.10138827475855016758 0.24605799463794819637 -0.42147995618674327645 0.6626266009509222954 -0.88136237773935710571 -0.61915877565901933366 0.4213929449623579071 0.71290482628526152808 0.30553064201633794994 -0.94757059390402376131 0.19603635919550943534 0.90468528045811025251 0.90118372921597522662 0.94978905870478391726 -0.53542024273979027527 0.28284296207378401 0.53767206951539647797 -0.81826316484609562529 -0.0071225435516863999652 -0.30915986726246047489 -0.99384125889081564864 -0.71143641277634794839 -0.81773866442809373112 -0.51786557764893004219 -0.21371373086220701865 0.9164696740305267042 0.27179372113555433366 -0.5495129535691485323 -0.33254907616570283935 0.89749060435459027119 0.40728984671380330518 0.3601001489832225122 -0.73740033089118628418 0.71747145434658232688 0.56386208600874376806 -0.20814463772710900535 0.96907512052608235642 -0.88198073512017183262 0.40190451849170005794 0.39021185523293300257 0.28956802307561324561 -0.96248227413956111143 -0.79541449097202354679 -0.42134109975877143128 -0.81861839406893777138 0.035054819797766256784 -0.39022923293425404445 -0.77429430854200353984 -0.31538375509610805381 -0.31398442667679637985 -0.32120667969624783211 -0.95679816312089349672 -0.32276760904748003078 -0.67775531956398427091 0.73346912497830718536 -0.26587712695600118629 -0.10777954181440407844 0.73720981600636115161 0.63030919014013142565 -0.87821030301273839136 -0.80598905830225109348 0.029896032741331346472 -0.12050953968067701361 0.033537038410792474608 0.78181253424792296336 0.42265283495617977927 0.4637542395104667925 0.73468196200282354091 -0.51921357717816984945 0.056960565783472860701 0.10167831171172525551 0.011696251595949114233 -0.53828562590266870735 0.7055242302049835601 0.34469094317364978863 0.6901706081528447001 -0.15291783082240573144 -0.55967941352647887499 -0.050230784189891242164 0.96780467390892321866 -0.79576531355078539143 0.36273000353915718641 0.052910541845888170442 -0.056003796597208221897 -0.61549723093212826974 -0.9313801871758093931 -0.76607566980585595218 0.63940092197460729473 0.65497884653876869976 -0.4026065978456556671;-0.83997389529138688502 -0.20224667521791073188 -0.80900826739227293949 -0.29360015623746366087 0.014737522454535237001 -0.93018811876410667505 0.042032301134658715813 0.72069925166241777248 0.095732152326774552775 0.066071717669886426139 0.41107981760983647312 -0.86257274243583259565 0.88628863787537492946 0.55403847878211598399 0.14928579212335080229 -0.30530277829521684785 0.39265927518151144682 -0.195133747370021704 -0.97379690894134929291 0.82320550587279561761 -0.86899063223805950162 -0.099478251091836486508 0.82487816911329558955 -0.72543769686534709251 0.41649993619265918143 -0.17741022238499382091 0.1215340799257778881 0.61419712090823963546 0.12852242303665165069 0.94872515283301406264 -0.8536143613249942419 -0.3297998365088055106 -0.19558748050126467666 -0.64560049515608919357 0.57920755886116981337 0.86452951243557207839 0.13907310395243133172 -0.88104677937201136828 0.2775356783780685288 -0.31361585024472349303 0.75887749122592884632 0.47667092054659043754 0.51597523983465876096 0.0065508279367349729616 -0.21792078511396570373 -0.88326371693510907779 0.83825598259314071381 -0.19363457237643996733 0.26499026205909709253 -0.44037150356763365977 -0.10727456139264802959 -0.35990760254124409823 -0.91755879693970621158 0.66255122505066976757 0.58282889086854161587 0.047490313179788426479 0.089322580650316452111 0.62906026951506821554 0.27011103012145576407 0.70806029690517446884 -0.71328929471661928208 0.094343856228548766962 0.93209489113393206861 0.64284180190437234526 -0.54808842512655830959 0.70377516578533316771 0.12029808869027662499 -0.55363339382553866663 0.99486741813021073444 -0.69486290075243162256 0.45347759335477128007 0.44863553848167025961 0.65501262950979965982 0.062962440295373262034 -0.45067322299048356848 -0.099110516688721117529 0.17438484674591911427 0.19061237111665510491 -0.016452583825671884821 -0.87790002299140323938 -0.68698769629084377453 -0.98464547575801708579 -0.34669390400366401073 -0.090548535486024386842 -0.37123763166995832341 -0.57256923959531091928 -0.50328765739014080793 0.9970435448687212654 -0.63029010314477795784 0.74281810913304091581 0.088131821758115583276 -0.3354803771295781778 -0.28406147361739708668 -0.12478095301973320119 0.37189904225123882053 0.46899358701032123342 -0.046076864830906484605 0.38368610603621366995 -0.62627917181562098303 0.23839338026676304416 -0.29461757816391698217 -0.87253800720520025003 -0.8891800244105914075 0.58549702383727131316 -0.13047918821794551869 -0.7175878887938698103 0.14977443308336355066 -0.049592093146595822573 -0.63387997415149610614 -0.82808466950140247054 -0.24101867215706712644 0.20705111980433624219 0.81694892410979180752 0.37710225555742626913 0.85209674553967307276 0.41077902711175889872 0.23369292060069890571 -0.42862546702939974264 0.27789066416817059801 0.98641446933813936582 0.5178243932148789419 0.38936085841697282151 0.57960938755272839451 -0.92776126769659128524 -0.49927753324305684801 0.35754354395794635257 0.04081187678661848256 0.12001324250644776481;0.0082458909222220544422 -0.31156347950354801313 -0.34347237021855514527 -0.67253179680639130211 0.90904188060919577374 -0.49001478199316328421 0.19532955276008423517 -0.79396329375440033438 -0.42021763593944672088 0.17349124495733914131 0.71169274033929386114 0.60504006039753077673 0.32464784117284062326 -0.79824854808796374961 0.019323700617296601934 0.14788847134486049484 0.22324991303582630842 0.87241686798378914602 -0.083140878839114584764 -0.85199361295724673759 0.66136663097876957629 -0.98298824738090040398 -0.9459945007229431102 -0.74472563895139520795 0.8829498311098034069 0.99187450355694384285 0.51591198633856816258 -0.69897880342851892443 -0.94375818703478686622 0.6818736473319795266 0.41730943189410574234 -0.50876013661337737837 0.53912636400413060933 -0.20915276273491256731 0.89287474749588691125 -0.38579008350483934287 0.73877592011979231756 -0.8642767362914856033 0.58211612691552305776 -0.8880916617607499397 0.52542609958494002065 -0.27820085154688767304 0.99341852760185167526 0.51695734378563984457 -0.21215165946618363968 0.37697378497359013139 0.77152204843675709078 0.81021804627029392343 -0.23601826456592300829 0.39510594899596784835 -0.80317366647308308103 0.33977633825732600492 -0.91760997943338451499 0.70668312302798352853 0.23554332176023251577 0.37958287542064583775 -0.61702844065695616749 -0.25572978309884120129 0.30146228501772465158 0.73132413062039280938 -0.69935758513446732998 -0.19368719650904275831 0.15380257482626547016 -0.36188808884820167222 -0.48206796387406525284 0.20654633344926343064 -0.78088167499075744615 -0.49400736745599704847 -0.85361517344129511642 -0.81393720974387440137 -0.12577579539311645185 -0.92973590311402132258 0.075353223227395460526 -0.88755129767390705808 0.99666709230487215976 -0.096861688022593206426 0.16975407251784191409 -0.0013356138033822073652 -0.77157997548613010963 -0.7919629286878180352 0.051024228932798676439 -0.54779116039033604046 -0.60678669355502079519 -0.076890950607372721137 0.26888267310998892334 0.53133085599941454191 -0.46043011409969425429 -0.0023872526250858783214 0.91548076322913862768 0.4718761021874104955 -0.24733637736009139729 -0.99929495852701211156 0.38111299509962970333 -0.15592288625457362272 0.029632558622875837528 0.17802830586023787873 0.94752324386196518091 0.84869235153436006769 0.76551027996911713558 0.25246370835628795248 -0.48119588188058237677 0.75734639820072358063 -0.94327894134602074949 -0.16845819312117771283 0.70505431604334933837 -0.48052003721512948076 0.82745523722143410339 0.90028894218085753209 -0.8904774124508316735 0.64239052437358901138 0.27922381414546038059 -0.13743786308476302338 0.94457826574787140395 0.87424458004061977867 -0.91540548116433440029 -0.46086437756660192377 0.79218534196542345072 0.13089355518473855255 -0.3707102449773445052 0.61142354881426896895 -0.51174327869454527828 -0.63901927814932291128 -0.81116057963367427242 -0.74512620561355769055 0.53086685894301588462 -0.49893852387315495989 -0.60102645036027224634 -0.81914058372302900324;0.057624244458950535375 0.79891105230310888174 0.99133704955639401213 0.079999594690322695101 0.26056581574688775227 0.51765998866860130079 -0.7105952148615213293 -0.16707811932314142744 0.88406704733866137147 -0.50693467456844065744 -0.16985769905161784976 -0.087598841576555397381 -0.76952491525015953577 0.54239040699978580129 -0.23320473651112361146 0.064903138303162410949 -0.28276466799076760417 -0.41725764544571197767 -0.55191568750591013526 -0.64261371675461886888 0.78711674419737343023 -0.2083919506851212855 0.39693064177185033437 0.20813625700886762004 -0.50021076676141418282 0.9254409839207486943 0.32460305343065476436 0.37966069846315142478 0.17514494103548861048 -0.21153572608874093852 -0.62650952296290896015 0.71518917451796237827 -0.58449778052393286387 -0.16906546576740044685 -0.83712177967674739065 -0.93658171967286674153 -0.40668322585858707185 -0.76998150162540257568 -0.88322093118282118951 0.53814385366177042158 0.50677816346415505144 -0.6744253836216755893 0.39945350926155365201 -0.89204957522830441441 0.098810034559134951593 -0.5043454620116538667 -0.16312109617295278419 -0.69797501132333383822 -0.0031931898947406001099 -0.72129207400227035585 0.8884560784876220918 0.03312521582266314546 0.91842506039495708237 0.45603326270943700393 0.38521511907634176097 0.12350933383554285605 0.28649399306146783317 0.68196501063004788534 -0.66014865732658511988 -0.89720588373845222563 -0.37375761503669924224 0.056663277265436962082 -0.97326740433048541945 -0.74004402002576608055 -0.87735192664360384107 -0.90103772791268976761 0.91718944218739029139 0.44447861187955695073 -0.064022303107791778132 -0.21343300800220443847 0.079930065001364791755 -0.1853916146433143286 -0.63206665110616921943 0.58568642300902373776 0.19201253214119251567 0.23298182382333854079 0.095414694682155465344 0.47508673320641592319 -0.73864902814391908414 0.36404187130474952028 0.56696341173431163973 -0.51273259843782503786 -0.07915545785299182846 -0.032433123472221936368 -0.50104764060063722297 -0.31454577233190073038 -0.54758206670912290548 0.57759290886004066579 0.83780552261051854934 0.37464451164706291664 0.38365012953126798045 0.90338943315577413529 0.32964552532664148643 0.53266359176078248439 0.51704560090015427853 0.36868824590961946086 -0.55653106798114371223 -0.70437782174619267828 -0.46256077615095803068 0.067289915240820175057 -0.90719631643047571323 -0.47708052964254732409 -0.82954395703312155952 -0.99188263076768379278 -0.18027236331181573092 0.38659187214032897373 -0.58985787240993903247 0.27382801391965849724 0.55115952908867127391 -0.076281285158085854192 -0.68505262687161549984 -0.88379222454169070744 0.99041118729003163601 -0.41399647265939454321 -0.076831017143142554815 0.91652538425044371984 0.43631980904635114804 -0.87333989531670153106 -0.60901556249213406602 -0.41445026373438831335 0.84084385866058042325 -0.78984226962043968534 -0.32240992012952718326 0.10001139664171576626 0.021425757405741263639 0.71927970645807981498 0.2901539199684950443 -0.04685454959953427867;0.48629529531195753167 -0.47791101643920047559 -0.033909770676183552396 0.48621941555586728478 0.74819892983822144927 0.81708655485883985303 0.82634467263537791926 0.54181314261187651926 0.51216185731477326115 0.49448839360867574699 0.96044387295471467247 0.17020892989561114961 -0.71390292363204921333 0.52276723042792661023 0.72194088884497531478 -0.54581867558155128251 -0.71317119330229505891 -0.73119292429408166978 0.6834852225181865526 0.51616252910281612554 -0.8601448752038943768 0.014773638512720977181 -0.66990759633841334697 0.92112231705153890804 0.16479848414227485365 0.60273572958023979851 0.39175249612754980966 0.37698922679789725887 0.71631489590823338443 -0.49779959999150458216 0.56686794986754074355 0.45065164049346151387 -0.49503617388653459175 -0.591840745914509192 0.76398286987632324507 0.055487273201308688619 -0.98752634878176592803 -0.95696099698975867209 -0.29114722019309147161 -0.25555531152509747272 0.86062987255321254931 0.71650365203736232633 -0.37564160047400707576 -0.43900022463992227628 -0.037528277906325041569 -0.77191373297033583079 0.69544934441385763968 -0.34959778784195738588 -0.21543831729277698739 0.86450604312210654889 0.76606067430339874758 0.96144882707876500039 -0.23790800616570478843 -0.21756516634110367736 -0.30033433810111992424 0.01516670220030106285 0.077430974144233735701 0.78073140210271496642 0.82235576455958359077 0.88702160630654336426 0.69744451918415095726 0.89735491815146317673 0.83986567834625491802 0.53974793996049230671 -0.89669616967792420414 0.45822148485630304071 -0.82252615302606557623 0.57013450792259701139 -0.94244276994496989364 -0.88002901838486247144 -0.7695885289737938173 0.22210029130968172995 -0.47198231299611476119 -0.027374449830276113838 -0.044393459144380559289 -0.6279394844131748199 -0.10859155767264565273 -0.42319814550728740432 -0.86225636674048788954 0.49558129728091188104 0.48377245547126024316 0.90373329913769862021 -0.59671610108310224607 0.87518552761259738038 -0.042753603687233722452 -0.69511714827182813359 -0.97711499194477025032 -0.28762341582112621596 0.84157995944047947479 0.18026036868076084074 0.88861290211534560424 -0.025599612694517798195 -0.70908826825258797211 0.8877269633283485506 0.39873207278653366448 0.71934469324158123449 -0.61490206484472043069 0.42718105968718828036 0.84043863492701165185 0.78333528514945782728 0.73854786024700980196 -0.55190523570963689881 0.47926976093455975203 0.70234575897904283348 0.5963244441881279112 0.96223163380343201823 -0.75744680713927470261 0.80851110183190710856 0.44078366566267324078 0.29382598471238219329 -0.58599937438597327066 -0.41197228977003969019 -0.77410202741097833279 -1.0090383583110025256 -0.16401226209806424317 0.41093035047433967843 0.91313463423060170499 -0.40877180516969863211 -0.45063031776219292235 -0.30510533681466994738 -0.43519650330970899299 0.41222930502896720784 0.2372816150251033096 0.44187724956710500157 0.38273507503893317017 -0.41956834619334143488 -1.0027939992951626635 -0.86500608329258932283;0.48260466707125426744 0.41333044628665760456 -0.07528947274811725876 -0.44266161876481646686 0.69598252598906684696 -0.40058643282616723802 0.24808360450986799428 0.041695620595801674568 -0.95089106824631586257 0.54802838071205028925 0.13384165774336742594 -0.33313149381597773058 -0.41273580311658131237 -0.93350109838573880339 0.22862394344426539838 0.96040359333189773139 -0.48465733087963580594 0.82661320268264515398 0.28574097922806052097 0.27150994634474456824 0.54876371402959045476 0.65167528212315040115 0.16840287342553472705 -0.64578436130809668825 0.52371046266011744841 0.3172770160566729114 0.090334286091451110323 -0.15590827154179875969 0.79983218346657847242 -0.10435893552201314094 0.02467512358080381496 -0.23938294385664393715 0.82256296525048377966 0.087287397335852778824 0.60423425190136703655 0.041705025786086036277 -0.14638063506272214198 -0.42777279808925872118 0.76898362243062368115 -0.79673914542746437917 0.14051269978784675097 -0.93730744352359218752 -0.31810513286421615575 -0.10601422372969127039 0.15530642815762241149 -0.79855689997895784593 -0.78274313952778551418 -0.12292693120440500998 -0.99749840093075436975 0.44967189508121707675 -0.078006062721553082184 -0.51366621874871731812 0.12587266762725768388 -0.86475224897038427407 -0.85750057922472988636 -0.38480661729662912762 -0.50034743586414842653 0.18315077531427270685 -0.68471390143783072979 -0.2663124331599358019 0.29956542877847369688 -0.02548545783504607698 -0.4903594721318846883 0.87634148632534358825 -0.98149741745004237536 0.15530168263088262037 -0.2475454201508895391 -0.8781648664405057314 0.3123139328993436159 0.53704172963528340468 -0.37843735682542445353 -0.10755985216771835056 0.087160743533165829788 -0.26615060930791978322 0.94664360436591610259 0.64652100939485790398 -0.1043728104537102741 -0.31078309150029581609 0.82840614507825560686 -0.61084168430509677705 0.80725353756171602804 -0.90967960525874413946 -0.70861599261954477669 0.9902632822310102334 -0.26645019723430074521 -0.097490457122845652904 -0.81685346862263519263 0.55942263384867363385 -0.18916373816087106441 0.32790108934272210739 0.9852648188629185011 0.95618595166487585502 0.93815740097134803221 0.41350924406918654341 0.29359872420896904188 -0.89871519692767853904 -0.7215459293765460469 -0.079756913783669558526 -0.40408716515941356384 -0.24001764176695949971 -0.31992943741895718546 -0.99719130197462546583 0.64261590028036774669 0.96480139030595424288 -0.76931010693802281963 -0.92774234195276505943 0.37813643365880689196 -0.27275056112828410804 0.41070324579645656193 -0.59511793925059919275 -0.40882111021729428124 -0.99125701763682072531 0.97932233121641587559 0.42512925599252260334 0.95240945800688225908 -0.99344129004645664871 0.055059280857977066503 -0.88052632851316081641 -0.33711800059574414945 -0.36316243522375768471 0.76466011658389776429 -0.69094690663485969218 -0.63862451496948935414 -0.77643430435252414057 -0.44655289802536080046 0.72013219867526423457 -0.035833823888156590698 -0.073696403637837804013;-0.64545815295517172672 -0.076769999557187329486 -0.085501698407522530587 0.63008256158360520516 -0.29449914624988648981 -0.9587255049296685705 0.49712670973081030112 -0.69506060978912342918 -0.68456524514157468531 0.090913813414863042794 -0.20917773086659297022 -0.56844151070608583964 0.85355739250945883434 -0.19317349249517223875 0.4021338343908453794 -0.52026241155631547386 -0.062721745785736970902 0.84899723675461502559 -0.72412135320744908107 -0.71578740451717237647 0.60865892466314819309 -0.50326922315092104121 0.72824540588004071928 -0.8857311671455136981 0.93120498131922224694 -0.97018751055250684878 0.12044423920090019386 -0.40165452588122363409 0.19989260760171534415 -0.18747720559707303778 0.49339440599866191128 -0.074924368694649245981 0.33415486784422498978 -0.28346699193019242458 0.48138892960111001607 0.57362814696127584213 -0.53214831998653400191 -0.53583439722200076893 0.38209762357696441804 0.23338627673767398107 -0.79438919368312443936 -0.020112604830397895483 0.65862215585359629166 0.38574409104435525286 -0.040011876215951369673 0.14220219678351098125 -0.97441947157355879305 -0.95122918478066997849 0.48701231279666834517 0.49558442025308191425 -0.027045850953836270136 0.52330867290147264903 -0.99634131090904776151 -0.6696392166227216336 0.26832702444985256918 -0.046818892393731381674 -0.55585866742164280474 0.22303238817943049632 0.16810044903961229856 0.9985273371613507809 0.52183671343109083729 -0.7893279245394735355 -0.096239693187320396461 -0.9879419852640869415 -0.67622243619169108975 -0.21865116403451101412 -0.98852544821490817561 0.93450641274449086637 0.40799534140628757051 -0.55157370431635643904 0.038949210537055023451 0.26844882928387026055 0.29943926519450170254 0.24246379388061489735 0.90406728268291747241 0.14948014449926083635 0.45278236895921497585 0.37436792100801041805 0.38832949485824341807 -0.89628292883750715347 -0.55600017544720459206 0.63918874477010168 0.60650874431498791317 -0.47465570903150244852 -0.92139626704363086773 -0.45559290856845513495 -0.82761747163476040434 -0.62184247214060861531 -0.49458567524853069841 0.090584650326819504684 0.51794089094065109968 0.090735353103732929725 -0.031344763238537520778 0.52208865752207933575 -0.82394332287224636424 -0.9060044287465316426 0.1874617486967422586 -0.46232231124820288848 0.58103018497229208528 -0.26487956879184015868 -0.5881743341312708484 0.39438440809022745626 -0.6380272937538600253 -0.095122701426833655702 -0.34226576453088175533 -0.82023125631965476678 -0.96101527195607117093 0.97875605078245775381 -0.4962934035276240774 0.75591157142212628273 0.3657989021842131816 0.50551061398534025138 0.58478365563843293096 -0.40381704720170485956 0.41603268105152735323 -0.27762852368550539062 0.95231677895059330119 -0.58107186253779752327 0.43996944465439935534 -0.63733217978402612047 0.66417257343879998466 0.034296622187355740863 0.41683873623182154944 0.79570917997537771171 -0.86593933010176926679 0.98852118648778941612 -0.30861099248872236878 0.13195047187423702972;-0.40046913521896165822 0.21637358877959578241 0.96704936635157545677 0.49258429963061395318 0.51303848537937912777 0.37038500727916712219 0.55403187937402575969 -0.67815769925752455993 0.1615426287661822502 0.67671112287363310855 0.36687072534657394485 0.1213028020606154167 0.61447785999844450888 -0.61095815921876694965 0.90894704940243298275 -0.067080179928624250607 -0.53716307516269179434 -0.64794525295593818903 0.57786329925894863724 0.249554437569213583 0.88871533635702637532 -0.98496188582126287248 0.66353794417647804504 0.39751934804671618107 0.48245043360148526235 -0.23213741477636193333 -0.35098362350293638157 -0.70937026845229489425 0.81344107922177466552 0.78975797615137710572 0.096659549186113774555 -0.74588743065115103992 0.53410357981090028634 -0.86759261658387909488 -0.43529771716535625714 0.32921278432545436621 -0.10583772170230032472 0.83195471803592047078 0.13617364404984436121 -0.50574716677652087338 0.18944403216025421099 -0.56616743749154607723 -0.60410489817088564024 -0.78003817463684621547 -0.74644276078041338351 0.42017086073760867571 0.40529434694801735883 -0.58938210660120893269 -0.25886136293114941909 -0.17912257342510620739 0.32761092890880189055 0.32250325033569537947 -0.97940114508804543281 0.974783158463248256 0.65548031069196432963 0.68775064736105562258 0.51742650341171358974 0.2107086815137914626 0.36173766056509865097 0.08599793614853191992 -0.7496781352167580792 -0.13637997488974804017 -0.31746956957734095983 0.84356376625113216328 0.17015603717663591032 0.7220192323345753227 -0.59631056902041545964 0.047889483936126679697 -0.77495555534125426522 0.8192881392160556997 0.04949978456755065731 -0.49404281206966893514 0.16936540295228888486 -0.12331000790861763872 -0.11840990892224009801 0.20923059126190091117 -0.68609306320914942301 -0.93331600775253631408 0.079164066601761437503 0.12659709107068570222 -0.206091249949781119 0.60765041102752226365 -0.068823261482019143509 0.55299420287864531343 -0.20190730842618362373 0.014380081419551314983 0.87550429869576595898 -0.40543899703129993028 0.76125135039747648946 0.14810557487651582198 0.10799638591868371273 0.3045195932077583989 -0.51997327056354347707 0.56852585560884716376 0.17334367003817929831 0.80289050164833086765 -0.44357571447260668585 0.55751901543868853661 -0.54524735183704464703 -0.77239252021002613446 -0.83578158973251026609 -0.17365985962996227654 0.6661167701926891116 0.6501605139492415697 0.3027335999402228639 -0.94966075440621777748 0.37530097173492216189 0.21224834559952066027 0.0022558091241687808388 0.66232783244858084437 0.62873177606501440273 0.90532906122364820156 0.19902402347312336817 -0.16516257440789666733 0.82861644646983623197 -0.84239784544844265035 0.89667226999276705701 0.26166610960835517963 -0.86196954748829424098 -0.35189842906623269858 0.018887042406251147025 0.047889480887022793654 -0.049632013694702527273 0.95423741740635414921 0.86845175466977497791 -0.15852870107282748813 -0.62218086501921432419 -0.2852495629446150649;-0.43858372262932660002 0.80957134788878637455 -0.34104814233463198736 -0.10635194512421206059 -0.16717237362134426681 0.93851458783676655617 -0.10387786262310630403 -0.39422534988952090407 0.16579288828155086533 -0.58806314294582895386 -0.60982373156767977207 0.7241475594106897562 0.13125776683978676584 0.16084456911133646062 -0.55596391135068556899 0.26533272911778699177 -0.90973755699969138799 -0.94000100931592356357 0.11350576109102464284 -0.84356023929871082334 -0.68941978222168764923 -0.45333920500338970028 -0.25772140348655564468 -0.77844645972132731071 -0.99089089765454629877 -0.23967670454444306438 0.90790181995330609954 -0.065808606967628316409 0.45404172413557997157 -0.49531576853114805958 -1.0148122548283022848 0.21086998220287661576 -0.7232157102699514617 -0.93668802616466873001 0.35375159513937243227 0.93931546285165523624 0.059440285565733476381 -0.2846815874252381362 0.85583079026483388496 0.95454900316864321752 0.83869206348854830058 -0.47484516141281668533 -0.4562559479770101345 0.89170647322085827557 0.61334455205051652271 0.10615626914830267324 -0.84177601405603519336 0.94645286264678463173 0.37278298886663008282 -0.46101182218273445423 0.81874845493032999411 -0.93257184099956313972 -0.57487401600023380066 -0.52631905233960918356 -0.12190399421162499694 0.76712488364889885872 -1.0168225576695104628 0.78298523999046365507 0.78858786629018362557 0.58862413421072290465 0.51350795452161757115 0.82197296335446767834 -0.21656207239722760627 0.80209832258650426429 -0.83212530247376392811 0.94920844799891346266 0.64793931371422119891 0.7705383766180510241 0.1499658416576561959 -0.57282519556564515106 0.10577896291175713228 -0.7078998586127672743 0.36335343205488124241 0.38522203664833637449 -0.34389459221576534897 -0.70892259287687409142 -0.60093020368329597147 -0.13215895102813049466 0.18169652735804203703 0.14473070836785104087 -0.7264540693438783503 -0.39070759328756449191 0.9066535925125270845 0.82767808700013034695 0.21124085319956550921 0.78859853134847524014 0.17437343562268067809 0.21075355760559430496 -0.58004046167898992703 0.802877465687971692 -0.82839029746033499002 -0.44257399529516849856 -0.051081856017628789191 -0.7917466076540415898 -0.46288186553326299277 -0.85927172746547808568 0.09909536867876540811 0.080485732038614296591 0.63592219216367318335 0.88956025127820548271 -0.13478121839360265866 0.60535169611557482217 -0.92387600341714259944 -0.17103094156145912108 0.53897348667476396855 0.36009373267762168069 0.73245950746703625267 -0.67580604114156384021 -0.19467469432845430077 -0.79094272682729471757 -0.42639415466404956279 0.90969628932408552746 -0.048256832284175509018 -0.37797989092918443665 0.19511152256997410515 -0.47151649879301443802 -0.3471263999849712456 0.47032397788347485301 -0.011626634657721185082 -0.6345490545264123039 -0.36935184028473055928 -0.18661010496008981208 0.58537564271375486236 0.46459864747551127273 -0.70036268850006866415 0.91370419404271774333 0.042208848847082779121 0.22798354803425419091;0.58690028308060004925 0.32075965788024368708 0.37968204322235671322 0.022664073324682686844 0.79740297063802278998 -0.48141231905136239178 -0.87374308622569585303 -0.28182086602316414048 0.554751081883616326 -0.13726822801487104098 -0.62773148774676212902 -0.053767864325252677504 0.14606804252341334949 0.34435654807591331572 0.46773890434295756213 0.99110591691403737702 0.068815687330268424104 -0.21600625083093411005 -0.7305666484677810768 0.58070807333882834556 0.8473604493022646178 -0.89059494105065128977 0.25225143473653549586 -0.46367259279842598652 -0.44689257349213901138 -0.79840704261484574111 -0.74874557499696803298 -0.38708960144215343036 0.40057628324093164096 -0.49605104807061983774 -0.36925224161863462458 0.24472802493839954097 0.049014767877623079129 -0.47356063403053499927 -0.77728535597573156224 0.41600260744628175802 0.18804114918809572421 0.28234392392975610209 -0.36496205985515273174 0.83128864865881546553 0.95818922937897232917 -0.89118917174326195418 -0.22351821244511421716 -0.75768966497217060674 -0.920435915333162602 -0.80148091846101976454 0.80002459807166403927 -0.76309740476093257389 -0.68212189331655215252 -0.43480581922682942642 0.020141596491753639003 -0.98179236532413605154 0.99412089959353766577 0.87277203082772614184 -0.84051041215768185211 -0.55961976705789540087 -0.68728955373172950782 0.70497680885774871573 0.36205263026927203551 0.59221409930689494772 0.074291182838404024036 0.91795872398305633499 -0.40013301909801801681 -0.36730026397421627893 -0.86574855447346643622 0.99193052427910566315 0.39216712282916732502 -0.02203863339016404535 0.855703068834488767 0.080434750088155690384 -0.38207846953259250178 -0.98933763875974944924 0.62384126615845758579 -0.87084569223123386994 0.0026716413403096526263 -0.12212103554322020771 -0.94971498934081721721 -0.19823805215028736382 -0.56107998211720344628 0.89327236084976657793 -0.53251424453783180457 -0.29144276030199878225 0.82321084495098240108 -0.5653239305786180724 0.33116692942367287333 -0.094729543904137569754 0.35761094961177414264 -0.52039022296319215055 -0.087018562803070090284 -0.9064020396992606976 0.91029237517302274973 0.72686177527569906243 0.76730701664320977162 0.73717473896707552683 -0.3881179362151921941 -0.24889064926136530986 0.27584443558226467985 0.37820209072933247407 0.965194860171782687 0.85105925875952215254 -0.16905169518495635761 -0.66874856496196843914 -0.092590159707036073788 -0.039988307826327555705 0.3672156345581496506 0.22132200047835770551 -0.60844464624542748954 -0.77908694479307827319 0.72247450890038833471 -0.66342890237449347879 -0.65876889344061761999 0.67209438115058528496 0.4137862633073539631 0.090348087728636478078 0.52696448319314803665 -0.3981566052377258913 0.51410794906609103005 0.034498639490392953022 -0.82425719415371867527 0.088354735885076821078 -0.067299235252912592564 -0.73520661736502901373 -0.7746877431415262194 -0.77612526780315049812 0.36943426080265462375 0.78553250398613838623 -0.54782310631442043825 -0.1513701203134605322;-0.51774608591463855412 0.31020717681368958907 -0.25788868159885569575 -0.67452730308315933527 -0.54861987171996906554 -0.24978646537884996448 -0.34302161571014422314 -0.18139073474093181382 -0.51841603684657333595 -0.75850675047150151187 0.62346454581635124548 0.65655581091839265717 0.10584935537996220667 0.0012098309403425488995 -0.60191071739318413591 0.67755737371210078557 0.83959803347696060349 0.52205335783766337876 0.16279996439922705953 0.58274412417469312331 0.78384029286061718267 -0.8573489763800692387 -0.40808994833523248857 -0.9701898477154935474 -0.76329859835801938672 0.99326932385961042016 0.33966100869483484281 0.26117922990516961868 0.51050970691745312102 0.39889416174118585978 -0.7513950722377367164 0.069994461347338221557 -0.53815798506503220722 0.4472073976597377154 0.96276400089212454958 0.1000986808598074429 0.40342852177145749337 -0.018758810086186628041 0.59833063346839776564 -0.075518795145879558106 0.31070845488532294887 -0.96879915753642342757 0.1993509271388198556 -0.21667766422003342797 -0.52512521547924140286 -0.51716411049842747616 0.55407372327078108221 0.087636524645836599845 -0.78023964617333230187 0.66594365690000367763 0.49548628228596358625 -0.73759287756288838267 -0.28407971255934594268 -0.79065811710758571174 -0.82325535691470408395 0.28491999302362591706 -0.92401203378446861159 0.6647751577947347279 0.11812419916525174202 0.33262294076845488888 0.70447322896286923566 -0.84898664453476890834 -0.93738691004930663198 -0.035506175174498721958 0.078452899430858868968 0.60684800523431881025 0.43839693684743230584 0.84245768721687119829 0.87319583791248955862 -0.3128710374409284789 -0.034214788740801083122 -0.98151476004189097679 0.20372716961547854275 -0.61598752294872816115 0.15130485843173757665 -0.34758380972190994207 0.77104895010357155094 0.42407843592763350138 0.79497453676225493524 -0.81425492494585904879 -0.26460892035819139068 -0.14271355396134888238 -0.33582148709965120581 0.98807928321032889585 -0.58761208622718741346 0.65204852059261564357 0.53476878841680597354 -0.0017648292927894271287 -0.25861629789195550444 -0.38310617367690302792 0.32733284515067806453 -0.77468700628866837832 0.62622026276321629545 0.38680706749400739497 -0.082127638136129776925 -0.77314844328974441368 0.044330755628111839783 0.46527216464717757738 -0.52933979038244727278 -0.096744107279258306775 0.97886957443510924648 -0.87255761204331805381 -0.25780912870986649743 -0.60768151333539699444 -0.41054837230755092392 -0.98564045828029289709 -0.66399118851174732114 0.98448326478617875779 0.45447756896231239487 -0.5598980213560704744 0.6545853305236091213 -0.834086297514065933 -0.88534253604478552191 0.016629709842922446583 -0.29995057006418157641 -0.38845124198479719091 0.2201800062909529121 -0.87661026593496549353 -0.091040856789431190421 -0.98047693104272060083 0.75774944337098126823 0.089529237696901908805 0.27635600697010964666 0.33037434328298576069 0.070962974742001527773 -0.14855096715050919443 -0.9528861892459277172 0.29603701555112116317;0.086113332795759042759 0.89761193473707823198 0.56513493657970803596 0.92454650364560242437 0.14278794744663927951 0.50959215770923960154 -0.94541169268281888272 -0.24598825728078088648 0.046717283661080084844 0.37850110109336110309 0.38511087102197222309 0.21163998094926619875 0.86965439754677620332 -0.50612859949719546382 -0.12361522556528414807 -0.001743528132267893084 -0.099838017281058441532 0.0098801388802685109758 -0.44534367626701049092 -0.45879943170908521477 0.39977545547072740328 -0.82555992809288003542 -0.043067095747649219994 -0.83572745895564437557 -0.73518830511590183008 -0.2119536380524280339 0.75072940444491409462 -0.89576184741815256807 0.56666509649353957734 -0.040091560573687984315 0.22824030302072922938 0.88451677314539167707 -0.26032746579543492027 0.68167452055919197651 0.78373275336780956479 0.24091923866533290766 -0.96639416677897527208 0.40675747258760736047 -0.22784224082442017245 -0.81158560908466303996 0.68904082789210152615 0.50901158049149752838 -0.44622054393804483352 -0.30980142288955042629 -0.51084170757570057653 0.26101086293879272038 0.35036122826018567533 0.11032172700413402089 -0.90261325194108366077 -0.58956918715999295788 -0.61659446670237838539 -0.16279164582061941835 -0.82459658911483890709 0.90291761825594418767 -0.79131203868174482263 -0.53402883370014653241 0.32812693791501318374 -0.09278176525319595247 -0.95956598439657547761 -0.81348417409646434084 0.29728513976880555081 0.57048158730694897844 0.07875133272982903776 0.16104460148670873831 0.64879429185841863692 -0.022455227319009587322 0.012631379097211542506 -0.35800421598869708317 -0.10033015488217666977 -0.011610363119991581188 0.60893861259580428502 -0.32948358030604385505 0.9670436286617385413 0.78572131181832227664 0.92218128842270541412 0.40208941978756185254 -0.48568703850525890564 -0.11829788016610323642 0.10994491098012720842 -0.54616247460766986777 -0.5295586742802137481 0.65033066953402363097 -0.071208682900511938163 0.5578378982238599848 0.56491367246088042275 -0.96770678376630181461 0.33351529116390116192 0.19661880319236316184 -0.24336993071675078193 0.4559366841165586326 0.67340261873381268565 0.38455456881729810359 -0.37986772154924397515 0.97047447204049663849 -0.91488664977677358614 0.38350391131773642339 0.72341121000817487641 -0.33797767107063891867 0.89904249802336766439 -0.51926803759234274604 -0.71700472925958080861 0.11615863268505366435 -0.14816995396830029419 -0.44917029060030566612 -0.022098756633422766277 -0.79730138553248675048 0.39562231584293433562 -0.47964518704853581488 -0.30924642216352427049 0.9542346355095644439 -0.06883175394029109051 -0.29861402592352592755 0.32594090063447678229 0.44903557662236887049 0.43238198677190498032 -0.77754432366388470665 0.47199889678752005029 0.6460009529990069499 0.40789903875869593097 -0.72600062956943522963 -0.37095778221864095237 -0.81081871863617771545 -0.88397911033396059377 0.64944167035210476069 0.91992089201608728821 0.84676580475299434436 -0.49113909600866240135 0.22316923992040565983;-0.582078123064682873 0.97353366909305572019 -0.91513515322739302782 -0.83830446058618124372 -0.74035622608961237923 -0.24137288028366993275 0.12012159092971999574 0.0018650665932230191778 0.10090316721579745129 0.77003080354102804161 -0.84483485440064420846 0.38573596482310906763 0.29713642562380715439 -0.57233658295041522912 -0.33513370140037562761 -0.60637555487669725363 -0.083408157442677988147 -0.019222711033183372681 0.83294042740175222583 0.11696421074286689201 -0.12702465815441366104 0.2264934725854864106 0.024301718779467934572 -0.23960222317122614744 -0.23831136252156437383 -0.17487788202362342105 0.44977385134873060224 -0.98056339582874196825 0.60024874282919771229 -0.79339839450331117732 0.17499451635598869959 -0.017457912109978362264 0.85972053996159025768 0.53259312663841062996 0.6607421087994477249 0.90623175661677368709 -0.80124056427330270225 0.86978512386505435483 0.86627346176257802313 0.60820912976550767226 0.02433075993940034959 0.24508050750369489434 -0.99771145169647590389 -0.42643856755958714499 0.77577084054138256697 0.87758024043365934208 -0.19231024374258576248 0.11683170145877368185 0.049502419735333182127 -0.23407570136651362214 0.46805260867764875155 0.95219648889049501861 0.28857281109179061529 -0.95461570280441176983 -0.078720796322246738841 0.22013640147984117612 -0.48819251294908933003 -0.76695851210351517757 0.49948080895537327883 -0.76655184638750284432 -0.16334748702812013077 0.27860248855033298288 0.83094099307536495314 -0.51904430776033771977 -0.29613906331660888593 -0.44178691750763737778 0.12201070939702848839 -0.66044369977725914111 0.95408031983009211618 -0.4586385814129870786 0.0032490124786434125721 -0.17437495955960863325 -0.61079224598663128809 0.10240831640442692174 0.92533938082321687268 0.87552105067659713455 -0.6247091076843613866 -0.254465464025850574 -0.002488307625128695702 0.78414331706839146552 0.14668256237803281583 0.31645042874160050905 0.80720943091878372133 0.024405670254073440206 -0.46911231641991113506 -0.92650066613897119616 0.12948077790232029316 -0.98020518677581802702 -0.64126766021915337923 -0.14612271993658532132 0.93139876791505149534 -0.18648876713368761626 0.83982304887389147563 0.73333403533925012319 -0.90419326488927953545 0.84802279314826767287 0.082447710495658799168 -0.76052952174777321837 -0.65382902693902988922 0.0059735146402583585643 0.66268212564651651775 -0.33393680667695763153 -0.81143676616966176063 -0.54954851446810448756 0.2564591685638901164 0.76402054702093080696 -0.14445872165467094073 0.63959888389694241617 0.22711274249168272865 0.46581158603296884957 0.50569272992968772318 -0.50355104104495662654 0.958028510639836961 -0.43566803576780327445 -0.64931307453525721751 0.88971070186911538347 0.044362587465330102776 -0.34509784360790740632 0.43026584689883851098 0.11413869867749484865 -0.65663951832209233039 0.89459826172938494704 0.57448756856385951863 0.52739411068650521308 -0.23349240628300446665 -0.91546870042215422458 0.69044978921923194637 0.77101870149981099889;0.31308793641959781207 0.28797453948007029068 -0.79649514046759084529 0.81058828608666988469 -0.8140709209994390072 -0.29040423378902413543 -0.38966710457330833162 0.8358167064459539608 -0.33067096044753907513 -0.70084628068531273914 0.31819112856067488515 -0.78037499013619249233 -0.37199621765277041119 -0.53284930446725897735 0.32592166470688477276 -0.92245898038572304856 -0.240821172218445817 0.30411025948915032524 -0.28195096095622979027 0.82393296303499141686 -1.0259587835261778643 0.34476146877306851346 -0.69081793813367498025 0.76257183091024249855 0.44140681927443148336 0.78295243366334532631 0.85254148899001480633 0.81415981229841682953 0.28749541062846689643 -0.039239172061445518058 0.33555929942536216748 0.4709611267078299135 0.18641647172863520798 0.60322039600195054287 0.27023844668053648155 -0.78137006895600025214 0.27511077564975522369 -0.65024236735073781546 -0.50618286297573389376 0.019539979523375577974 -0.74701852612115460239 0.065714079768353805822 0.59987148649358790209 0.22289572074845404037 -0.018522745997830207532 0.38975217556194996504 0.87476623409959619604 0.79668603663930182002 -0.71829169662775360639 0.87545299976246848672 0.067866975119007189043 0.72374482464365741397 0.61299675264423225673 0.37770486414190934665 0.65966823142751340736 0.77580043839373125092 0.25974076226890452368 0.33441638764503250902 -0.23200106819672650094 -0.14613968089109308224 0.55232962530154794401 0.79203340301779168175 -0.43108973358611141213 -0.14648501654427667495 0.036712003983133602303 -0.059083645171704099464 -0.39104364905825894638 0.75992637802159168636 0.66549614728447015199 -0.71046924543239453609 0.63480754289333141127 0.71127130231791346748 0.71104575546308468326 -0.54058032201437278275 0.95792543353151726748 -0.065742447963955424894 0.66961618124913480088 0.2248693362101983062 -0.79793083543505372024 0.94206182144378258769 0.05317522001854210062 -0.67846861852342077448 -0.60565917884044573327 0.30118231120087424202 -0.019444994707331131334 0.2891587131938337385 -0.038081973779600493402 -0.4812221388999645133 -0.50463896668398644518 0.47895318025787564364 -0.66684816170070115859 -0.40500663277322995759 0.25294683155739838831 0.72367109720820499419 0.92002423389404852649 -0.43945277273502098003 0.95220155602739409151 -0.85312194874810387546 0.45935081695489887732 0.75102383029744390619 -0.37321750684808102649 0.46165972663600035597 -0.015079936450012789567 -0.2178806420581033132 -0.12444450413410017287 -0.45334046256881410653 0.96136366927635230617 -0.52435305536066523224 -0.40552825426394195629 -0.46213251796843057839 0.74966487249809754534 -0.72310383843735770437 -0.37083619507578097219 0.29313631073582585573 0.8931926288468404751 0.54569836684577199826 0.46850729920463629607 -0.66160397471317045071 -0.49950713951656228184 -0.95458542810730451222 0.34355528270615898201 0.78206592776826999724 -0.32070124473232475282 0.85583647156493247721 0.68140174442876932925 0.41442963438778573915 -0.4953742003129942284 0.90880454051493186896;0.54630484821810698648 0.40948345159303611851 0.49394787718948984789 -0.77996866741896431208 -0.11792134683030930375 0.58073389063654534681 -0.10883611424949268809 -0.93725007343489186162 0.77103284689647044736 -0.1120285348372525025 0.021592343374897016162 -0.40080254501929823974 -0.92756643061275845241 -0.14717498020321828633 0.9647676461925220881 0.15239104318539498095 0.96889258498357055949 -0.68682911860735984533 -0.93780142662944743215 -0.31761054677018241144 -0.90465146728828127465 -0.38879383938405331911 -0.025851446229610441918 0.86649817529956085771 0.14903827072194708592 0.93724359776987409276 -0.067712766819626013515 -0.3831810737357324026 0.10764444683454410523 0.70727894908790056583 -0.87559149348561216009 0.48977462488726630774 -0.68074057432836565518 0.89446577969509366568 0.3675038333528204415 -0.36123129841530987605 0.73882121290754310117 0.17826015912464376889 0.13723172239814518392 0.61366260290339313954 0.52019325564309792931 0.64785428097891073485 -0.98499486053245233208 0.52450319413122215018 -0.29440686132303017786 -0.19070473226010320467 -0.024727389513812036981 -0.27021477029947882365 -0.27432422976810211246 0.97020654559737873335 -0.73115914938949178037 0.1220470241825226676 -0.69960420059464722975 -0.4736805363188996143 -0.53942081622242898931 -0.0031796616983401637668 -0.65765444165488173844 -0.82989274117806255404 -0.10221732349442036458 0.56614931840015914055 -0.54056420703784069381 0.76262259636085238945 0.82389342747894289687 0.21695338216971649103 0.063185603155667013908 -0.08825779291794177972 -0.15882535172748601937 -0.1044955481271510056 -0.22125385378489825783 -0.42064812354968772468 -0.82492921543138386653 0.23928774592551316225 -0.16794129216278408379 0.10984396152309550132 -0.12272684659179411426 0.061191693056491747171 -0.73165615383477078382 -0.94043043148210681004 0.86975093980385320691 0.31174941073649309331 -0.33348171824449091005 0.66562498050774343561 0.38651900451257881208 -0.74900404056734570801 -0.71637498076309036321 0.69585088156938557091 -0.45502360873904246219 0.39903084589762216616 0.90852511266498381381 -0.73159579306449828984 0.83982528113039300877 -0.6423303412575649407 0.026293492666257911594 0.91484581313643364986 0.76379621325295565804 0.1456440497780586707 0.52603712529374280216 0.57230905587478231311 -0.58374539768182853727 -0.17023005716374117746 0.018430765311080454794 0.81078412245356079602 -0.10093275873132645515 -0.91820074285586295026 0.24595916955932040082 0.92729757977208326913 -0.21272176986597934878 0.63096550526835559758 0.28396059869842305012 -0.21684007968699225977 0.19505539378772196457 0.34602794812621873177 -0.84230059982989291534 0.10553426035155299978 0.43424703650021645451 0.36196314328002565652 -0.91649297869870594013 -0.29969195789679936581 0.091341134056014849918 0.10752876846309056269 0.72650411900407219079 -0.55820747048369789844 0.41820162963628515485 0.91042959316043114981 -0.80649089997861111989 -0.24642121749430456745 0.41876718013526481599 -0.13908145208966993245;0.91747500926411662547 -0.55516299739626229215 -0.34498643130858797079 0.54325453272206503108 0.36748587976989566251 0.52449199978316762838 0.027957310029095076148 0.098604398137327478602 -0.62062672634172977304 0.98590318351801997654 -0.65940676603315262483 0.37748545988750642488 0.95331900690407000987 -0.38692187257582183468 0.34549494328459345871 -0.53236007668641838197 -0.87028137476105837944 0.42292268024025125861 0.83161179582571875812 0.15209188872150058991 -0.55964407399870064186 0.85034680766114789652 0.6886342878301585646 -0.62459713786047088568 0.82901743429582974709 0.4717660871447912907 -0.43097853920489065382 -0.10259796592397968373 0.035593048337439217588 -0.079620203706114958675 0.86587710799871775436 1.0026544809443096451 -0.092885635377001285473 -0.51025185708416365138 -0.062514023088243275694 -0.25876255437426742834 -0.53385206408439500603 0.50667705228936721351 0.75866147395872485237 -0.94307219619368820585 0.41524486417086226009 -0.48428753789939288366 -0.5970302311028260478 -0.47915639927675574006 0.84600525958134098481 -0.68686572993161643108 0.59284055129274770835 0.8593588951913270213 0.70115549815557520752 -0.25676480810574375813 0.0635838984683782249 0.30865956469175109822 0.79520566958282479231 -0.58579517033495664968 0.41971468019943969363 -0.13404535495543706825 -0.43845729378971615153 -0.86328333067418128177 -0.5340662586161704084 -0.45451986421647305736 0.51073616408191113702 -0.64993332646908119621 0.2033000821118975121 -0.042459055361054411082 0.71042734383814454269 0.85982759178047907245 0.91411980797046876734 0.70307251309679241746 0.76702534243006681436 -0.85522670651444532286 -0.54004161160975117095 0.44148354946726986459 -0.21427567097781100025 0.93103714875186394107 0.66481569584681843299 -0.62418482467902747235 0.36241172956288097984 -0.27408399020606394325 -0.81514167414487392893 -0.12915190259176981269 -0.53453677420561152012 0.74707108342626116215 -0.36534604438492512823 -0.69064403357237058589 -0.038604369021851957233 -0.33041355400967853395 0.31304344869003375429 -0.025212756063255268441 -0.2533156624504896981 0.99704679277237195922 0.67736761900565989336 0.51306321390943609995 -0.70712873524600527997 -0.29346250021959791043 0.69707665974505284012 -0.21137817573283593231 0.46152944790424149657 0.047373648824991870798 0.34112404780757288325 0.43460039498109814815 -0.36228692796868017245 -0.81373920513546804667 0.43505383305148848105 -0.62164167845180684502 -0.42163364432754207867 0.43422039164904313591 0.69897746310945230164 0.23755051200298502034 -0.29756542315300116286 0.21767081402795065981 0.61489193120141738547 -0.90073742749814622588 0.47600648669818396153 -0.032161059269601235955 -0.19233169788657097921 0.058707469866348234444 0.23571705189483180276 -0.71554113499225446837 0.96706947477482951836 0.73936162820983919453 0.081413079287940740003 -0.81597765228044683017 -0.63735254363146476297 -0.57340146193759744531 -0.3777981549223100588 -0.72828888840846039976 0.49697274150610931676 0.96461111889469774994;0.58344534263562719545 -0.61883945215661517736 -0.022560854873514779584 -0.020660821855437383476 -0.17947048576715407542 -0.86010948204712556198 0.77365058600574143632 0.012706011541479433902 0.18056860537531993494 0.11836423744338153696 -0.89608365477815010713 0.50563162395296479268 -0.072008026953853221386 -0.84222976987369846391 -0.71944087012916657642 -0.13591141376254212148 0.57410230624829505786 0.13241554140497457936 -0.66733529349746301129 0.48945959515060777356 -0.048122018191163462575 -0.97787669359900020183 0.32735031428585492641 0.0051760832281766422369 0.33646643668026365859 0.028961821884916805203 -0.04305949579725898424 -0.21651854701765027578 0.058252324565470248174 0.93227055154471627496 0.28533514385458391693 -0.026988983032968594244 -0.36157895421407371117 -0.83585266199024466083 0.66237494719741607518 0.43421241617676242797 -0.13783093238981969364 -0.36059393625506785952 0.36230279506268825429 0.31070761768703891725 -0.43804221389134334608 0.59530231493164897927 0.066533483700008000383 -0.1968080031640806471 -0.01541498112429873224 -0.69483567856093930715 -0.041881908002805889879 -0.16561411133891512648 -0.72902185515276363148 -0.98437925657428881898 0.22040909924248253127 -0.15751733231582054628 0.01973835998960926652 0.82654955305163646528 0.26181007395661559656 0.87483073859361670799 -0.94728539942533473983 0.382779146492829625 0.60088112212150601721 -0.33989647943850553879 -0.13671714537609869211 0.46776315868460804914 -0.73697929824150043565 -0.047890730333438824573 0.62490966769072175957 -0.95895326783358880718 0.87331192982001271119 -0.69703815934486823558 0.20587899506089324397 0.12511135958723840211 0.54600546387767989742 0.45754433496725632757 -0.11988837526892281993 -0.52138082655169970536 0.025747975613151119489 0.93844944439117772284 0.93466352528216600781 -0.105137462315002983 -0.63697891046465948683 0.6931302207332248333 -0.11921788912757280698 -0.74721647243750033418 0.4413248702962537795 0.62503972765727655592 0.93629538808746204381 0.58713851275697770404 -0.23557293357564157432 0.054415030679232145872 -0.99499010667787413098 0.10012997438876669598 -0.4285165266529142869 -0.18240851043771844076 0.24975789598892927934 -0.3112937970269937793 0.80745728444404329949 -0.090282716016163888639 0.84554050505930256065 0.57374305321517526934 0.042159990805287428373 -0.12787275058332636668 -0.98420789585227330676 -0.081807228866967562908 -0.15293674705710991191 -0.68570085083295784223 -0.11473252482749218828 0.54210986786985326802 -0.10844157489807537686 -0.37913589454862539618 -0.83584062750619425586 0.18209237019807766877 0.66503726083453673645 -0.92387367243953910645 -0.42202938341309814696 -0.45120372501817285205 0.5105415256645338129 0.56995144799494790178 -0.80001590307400571866 -0.90113459332247214384 -0.28023097022396514788 0.38416577918623517895 -0.89300911392802162503 0.37397969201682546014 0.82754941779062685114 0.37871439445252597089 -0.46854722213169686107 -0.41849879523152622163 -0.37041603087365571056 0.038367853246371597109;-0.29546804178286745213 -0.4307900209532620206 -0.83347534825985314377 0.8981878474401325807 -0.35121453671314184497 -0.41612180491522576808 -0.77828961437296939607 -0.21430484084664147559 -0.72938939477522879429 0.045583431720174205637 -0.20452940180162748618 0.091353842170310617377 0.1820836476120126779 -0.60258639194533381023 -0.078426975883442384685 -0.8415508569744776235 -0.23584683514460902387 0.66888858734167411235 -0.15938582698443792829 0.62849239177345794793 -0.9040235471148994062 -0.64792716615040268913 -0.20922324287038329693 -0.73222899811721453567 -0.12811516682908630216 0.011552386027175343131 0.77119121668259849045 -0.52247991134904392396 -0.99790517621362684331 -0.49690022709252512634 0.5853742917508701904 -0.19879761306518517472 -0.30158697181638816076 -0.55956598893934583749 0.24015156690091266078 0.59614079672490571937 0.97519103760868564024 0.46080224550264681227 -0.50119226402518646246 -0.300960810869888018 -0.1006653813216527027 0.39613187548648176595 -0.58633418417004112833 0.82531320718067679998 0.0019780207780641934079 0.31121087758327869999 -0.173029062844596071 0.51334517500536192003 -0.58786184766962801262 -0.73836791212411423402 -0.091296924032693738127 -0.70116559702946834598 0.47615185455367936562 -0.41957539124874165815 0.45320701955216136092 -0.98251614631074524198 0.79971269479983519979 0.046179549003823705533 0.82974695457745806237 0.8401623256141348417 0.53017134576577240601 -0.61538654688558835915 -0.96671386526672486994 0.65696138227934697262 -0.86767004190106544748 -0.96096764916166255155 0.048576857018933106147 -0.88199478625997573822 -0.9113078941754988449 0.087849241656791532407 -0.88484208811370113068 0.54317038650836058089 0.31646461344464782428 -0.97376872254378787908 0.16253990694665731986 0.11232318405915853177 -0.9455265199938742704 0.56225663022063865348 0.21610826294808016534 -0.25236883488898698147 -0.85530156458284456455 -0.79317364798419709437 -0.25155690537280417374 0.085269866305117458793 -0.48251367060888417093 -0.49704644847985757217 -0.57610959581348586411 0.89522988618099663682 0.9584304746366385519 0.46542535638228654804 0.013703688439756334105 0.49291855014413532565 -0.75783593461252163337 0.76928060034221523722 -0.25295693139557595686 0.77275027863991874177 0.74671629023675456516 0.83104170882584926794 0.59503432780081744191 0.29483031185395680573 0.46071231048950278542 0.5006783265462193544 0.37556999524027068205 -0.84042641221827696363 -0.22666284904332867356 -0.022906610305021279927 -0.91969159715408577149 -0.95953211739385757539 0.062905901154120202889 -0.5139327504454322959 0.60794278809159330024 -0.84697103208817292597 -0.068338153870862505812 0.47513683674150675174 -0.72061312243428976565 0.027735094187660846998 -0.49393843394680025938 0.020288117442995856621 0.66813859571451161834 0.96851691856692134763 -0.9849106702990286788 0.28976583169688940878 -0.2555151994546316363 0.85111774138639040288 -0.40305576001685694543 0.40991425449908724943 0.45879884852021302066 0.14765670976327927022;0.28127682223970906783 0.27947104204132455774 -0.21349863538425481457 -0.17573020439845413176 0.94118576604177017764 0.68448157671803511182 0.40506880724860661047 -1.0036683288021821525 0.45335355311498959363 0.55135493368515242629 -0.86106718272731186392 0.4260564045288440238 0.42771942170467103228 -0.66999204190069483467 -0.96347910537836156664 0.76588719088087986453 0.19916599353849551157 0.57656473828181475927 -0.31530960538861757536 0.78900309730256390495 0.37324956463997516209 0.59397066924974373237 -0.73662373875574671533 -0.32669038298592634195 0.97602676655644871051 0.68513319452225329709 0.47237005517927149745 0.81687127847579832363 -0.38164060527737125872 0.92809223575007460116 0.08556063639934137488 -0.78155068556088702625 0.53634075740212294736 0.94174234954118740681 0.74418759914426535484 -0.53158422209688127591 -0.65139552731901473326 0.23762812316872380936 0.16101988376044695794 0.78649782970018111694 0.66689447886532160492 -0.97983795756283043055 0.92376819625730344221 -0.89230213634431265746 -0.035517246753126542613 -0.94288470610348285028 -0.77378019269890785381 0.96655342845700420451 -0.58103177506264125363 0.22918123573046925157 -0.37822660696196563901 0.53892563460300735301 -0.061958558193305549033 -0.47411113128142889916 -0.56499787248273714013 0.3233501567852701819 -0.87758845048029954228 0.81103050985311797572 0.41143566917813212402 -0.052366156758136883642 -0.69768430429183914132 0.026423578435309298673 0.47842330586275172433 -0.27019561925842455752 -0.54603348083667346824 -0.62281976611155798196 0.47066619426954292571 -0.31308506848315148519 -0.19933747138306834312 -0.97337806427202866466 0.35512746836287184538 -0.41624244036381663481 0.0068601628179760223633 -0.13615099405039124414 -0.090030848106366828665 0.9728747583120296305 0.078209463217060903872 -0.36981084866199032124 -0.83435819466355420904 -0.49858827079931694604 -0.10685932475050487211 0.38154471631618042116 0.46733706799611823834 0.70554201738606947547 -0.092152365182837397972 -0.30235623521976134898 -0.99447707835839282975 0.23513965020669241879 -0.78487253240605836524 0.008417610647256606668 0.34271650876261583463 0.75686143639738856503 0.66550901851873245363 -0.011731050463799569741 0.41507764424197080011 0.74394180318461955448 -0.58030247385224509316 0.59618550975565942629 -0.21048905038975412873 -0.28971113040983448306 -0.75148385016064322972 -0.75597940240687877544 0.058268512695231429455 -0.4602117701134701977 0.79102839588060203102 0.94300505118743860322 -0.45407751454345879338 0.25660718096642592956 0.28498878261417315283 -0.41425522094319133792 0.33814627819895060057 -0.58564363433792143709 0.91231998584041384959 0.63374490378361392207 -0.81713927789893148201 -0.59794377366184325862 0.4841780015831527173 0.57586067240980054471 -0.82206785858620101681 -0.3087489502899752325 -0.55013289778877461078 0.07929012108338796827 0.79205304599909820418 -0.64700703879065046831 -0.57542951468319081254 -0.30222621051850695473 -0.12834165932543134536 0.51350319682652667552;-0.87659765721278271045 0.22794228547138906116 -0.65402603615036625229 -0.58657785680739493728 0.33760262870158164183 -0.9521162797230826591 -0.65590466499158495139 0.96054887155230939122 -0.48424010391051242053 0.77233706630554510575 0.16953434498253350249 -0.074148429853309272275 -0.97657687160897221901 -0.83641626649054434672 -0.27028592612536961326 -0.060525305428963838139 0.099554588975848679056 -0.94972124415419978405 0.01878790938591867743 0.76779452641269796409 0.60666279777272746898 0.70445496357826553613 -0.20077957382438160749 0.16652143155918386341 -0.53344182285023755696 -0.17726897132438290683 -0.32056071494574833736 0.41837006579729041356 -0.2424719910555850344 0.025575009914166502156 -0.240764871608208475 -0.89235795176619636671 0.37351969031226017748 0.82290547283623727282 -0.87422497716382352451 -0.49112015471270287215 0.4318287707509136375 0.80114984068693173569 -0.25058121035139979682 0.70254731715082652244 -0.29538564722257887318 0.9013002714298050666 0.011982372570644939103 0.8464484149744007091 0.36279279366320160705 -0.21897252830117608369 -0.18748782134561770008 -0.13695001913136373162 -0.50684621233455739997 -0.41284815475327718559 -0.004593634054176565229 0.44068202530618871826 -0.070618008305238344491 0.013141275884205994018 -0.3167379041651687821 0.27389429451435343132 -0.82149723841505051247 -0.089702734800294559037 0.98366816240080301448 -0.58205623827633101719 -0.32950264084146674293 -0.086448902000460625672 -0.91216985908776648806 0.54422744731206251778 -0.11000824595365554792 -0.019133808802034968366 -0.15912125847210867313 -0.30589113227481257162 0.63671063099680358377 0.72401156997808469029 0.75258863676196963155 0.98641748265108497584 -0.96784340294933191018 -0.93703065791181128219 -0.053858668434856316054 -0.22649774557019242138 0.28870060055736423976 0.93445092198925938654 -0.61442091368418072506 -0.75693728884497990528 0.24202479483890337875 -0.88750955445067480909 -0.87095054845015917877 -0.71873618795149929461 0.31852544743111721459 0.89943704102486909946 0.92997921048736320593 0.78972528194352142883 -0.39941244133488629231 0.14959715599577783074 -0.50609265701369676727 0.20120373451332285164 0.10506877843669948369 0.63523170722693489409 0.96675441800708972195 0.85566658481463875319 0.33854932630282719153 -0.76644433010544377183 0.92051300014308745645 -0.72966321631665631564 -0.75294924508209382097 -0.81789565920756168715 -0.89793188697708181678 -0.84199431663367740875 0.77697124060385203137 -0.5760216892166856173 -0.062244952853311330543 0.96014534819320118686 -0.25798260001611339476 0.63494603687083350785 0.090275173270878195098 0.37471688888442700183 -0.99632275645720613788 -0.4576059538709069674 -0.61191550833131191922 -0.033696233698336630624 -0.70344904470934732643 -0.51182027911260985498 0.99533103009526513461 -0.1193918375134326304 -0.57973854049128048516 -0.46943469447089913871 -0.47332687180631616286 -0.1557454177981163479 0.074837172580279887057 -0.76602793898388510385 0.60775967159822896768 -0.91873849623205261494;-0.81657601430957171829 0.733042532619314402 -0.36527629441979275748 0.29483925521309400919 -0.50602563206382644712 0.49346773372048580164 -0.44832420840367714909 0.7750471429478639207 0.19274006478674482468 -0.78923002197672698088 -0.83945686863893753671 -0.9303960898288248238 0.64774565917452853192 0.25926971927469982804 -0.34231276481108924292 0.080205993656414634185 0.057888774597103558051 -0.11571465652470712404 -0.9597476153123286613 0.56750554101648986727 -0.080795671415800393578 0.61766563110233119183 -0.58449378328110979108 -0.58023102803417347939 -0.54704190961220666711 0.12252630081200480139 -0.89006981331256784795 -0.74476754358880681295 0.74922671811577823409 0.79149434557480535801 0.67638274690940580758 -0.29190832135283650839 -0.56342791395871616444 0.25182947754861684242 0.29487000383111716673 0.92383632147117467071 -0.94444689666048298182 -0.19203645223277884813 0.9673322500337764307 -0.71360384332455062406 0.90269978996937749738 -0.20167136723243730967 -0.8960835058844922596 -0.89951886855099205675 -0.55384110628088845107 0.3570290643208678949 0.2132850428407536969 0.18628357944798865087 0.12884635151480014481 0.61905500527208223716 0.11825950530017703688 -0.57027624367784701676 0.87215454376004797332 0.15727961887701652488 0.24009565876895549996 -0.4230955685301458491 -0.0028256563576835595948 0.55049717400031483727 -0.68437030844605273305 0.74452417976629237106 0.43290711530332154355 0.9107999268341945287 -0.54176663417213777318 -0.51687360529866677172 -0.71791556236532427793 -0.88799887152485801334 0.87328796827907040345 -0.8817846439077330345 -0.35209936439893424476 -0.18519009519463150437 -0.27413097338712555384 0.93504736218580575269 0.30168067198165332554 0.080873244048535908313 -0.77990046944465596379 -0.98470202496480774279 0.47829844752902361815 -0.25181784134890750071 -0.90434810097554196862 0.9675156602782645221 -0.63712251118881479961 -0.24016468443024607815 0.31654624429471744929 -0.8671047582293408551 -0.17259485956995784806 -0.04671612094205567639 0.21499560063556560907 0.76535668331469064452 -0.92579992014403866829 -0.87850713183662154648 0.40185228784832510707 0.012669817255278978396 0.49652726684378023503 0.67003122218250699138 -1.0048561647260674246 -0.28951747650406167711 -0.87442105492423582991 0.91084638026137509925 -0.11522116205707393088 0.02984244604916718932 0.84243922316265740236 0.59321299257688031581 -0.066816394686178032236 0.42274290560517990833 -0.79057378441583547879 0.97457319715176460306 -0.18165119849429053889 0.28159747010014296587 0.18581645966760745869 0.87801940703911274255 -0.053516139686700485434 0.70514619606108375205 0.028889248379711310322 0.01390033235223617214 -0.099356703798540640937 -0.81797749499634953008 -0.44118570027617454166 -0.95952928491793598731 0.47030015224410309793 0.51940961148269804148 -0.48979051134668677436 -1.0047388005425661461 -0.56406643143424239906 0.55890612517705473561 0.27160020396987377689 -0.77777650146669696785 0.34849326017397214139 -0.91290548366455270823;0.37360782533276504225 -0.44055068256048990349 -0.22573751524171892235 0.63421056710667311762 0.33613590185528541276 0.29427473653516011964 0.43511623037560909211 0.45881525506793052749 -0.90460109920111064774 0.27181890874698244609 0.3836340175913264261 -0.89904757700170945256 0.25485337565001775495 -0.54546090585391926453 0.85428747318258624333 -0.76813538356113042482 -0.37932633334523635504 -0.40738430136436298845 -0.55755479664780782656 0.92923471495982434831 -0.20409639292048997739 0.65659244126445059919 -0.3655003627983879344 -0.273179034084565453 -0.16248288552530998352 -0.49452970126082451685 0.27517275562794552002 0.48010078635264630265 0.92673000613006539794 0.55133004789362471953 0.93737252017736172327 0.26036485452950564046 0.9494667429051530938 0.98460256428926595795 0.93083674784082082176 0.94141901967743368829 -0.68577420495634022757 -0.42708661789889035276 0.42555231641347557314 -0.49645565586813700243 -0.65493766638180539452 -0.92025941916926501385 0.88996017876394972745 0.52154835463487936309 0.1804813916777381344 0.90606165921342851632 0.20069828031395897661 -0.73705465059595498545 0.69160616331152535707 -0.61058577289155491208 0.7864474468731519341 -0.10492747147657577322 -0.68249815541953640086 -0.9416167766709842013 -0.12234150329045867522 -0.44258318488991754691 -0.67777030598093990221 -0.24172728616415128933 0.47693834135286072851 0.2508647318556243011 -0.23377103778356533859 0.16431070588462670656 -0.65201213788208289834 0.5988054822844857128 -0.12345753649042845446 -0.55417957488362556973 0.41665890966924901129 -0.51215776005500468493 -0.069645439407822307132 -0.54307703184384958917 -0.9396159150448513131 0.83305545222555688056 -0.080684865559097040943 0.20821265081375583961 -0.22001413036878414431 -0.12723915449321610005 0.17765716624520888622 -0.97432095886419300967 0.70747924757856739397 -0.3553805815002346602 0.91962661479154661492 -0.44443708870899101271 -0.096818681353000535239 -0.63869007080389517128 -0.34257549647567464568 -0.66129193264212071668 0.55652316115290401122 0.037718139755932522661 0.14997748380536557455 0.83904981975942627415 -0.74317502286662406874 0.27928442937604747165 0.44027993965898559736 0.21100849361343332333 -0.095401899923440725004 0.71401933450059829056 -0.81566897487289291568 -0.96635522328464595887 0.3936442563359527913 -0.22937324210282539205 0.029586846753467899163 0.58807599303848245853 0.92026116945075586706 -0.66642757911858185871 -0.94818010307756428467 0.52063778645407521317 -0.58908555942920126647 0.62753266927043949153 -0.12546527969838905392 -0.85008808610251973548 -0.37448740726866192041 -0.62197822477857633849 0.80213107382937653966 -0.99972090361842935735 -0.60117388877185073959 -0.72102116359417101066 -0.91846515254789706795 -0.94064282118601516558 0.91224718605748122968 -0.14262885098614952462 -0.77878470355247242374 0.16082835030734043968 -0.15465007175383149729 0.23517030283840467675 0.93769811580173367815 0.36285531198043785572 -0.013016385657074414084 -0.15910926369706346328;0.83452673319436199151 -0.53388492633040995905 0.54198764622217043829 0.6816031313613843956 -0.5918016576764555392 0.25573797739711512378 -0.67237562074849832605 -0.1698116127017499366 -0.7859212504556520873 -0.33228456166471409539 -0.78233031122780860578 0.32400934073330844853 0.99368652235642840331 0.89780950655232238944 -0.36359141397275784868 0.62531745144458450447 0.78111505976232775694 -0.91522220099628337486 0.37478796376124301482 0.92538656337423175202 0.19244929179038017253 0.96466583217762091884 0.66619135196613554761 0.61895004336239889398 -0.60784171803139797063 -0.90185322170475212822 0.87406079174704265355 0.68533276407480681058 -0.48848895105280543127 0.65298974390852992933 -0.84406388388207109763 0.0868884173422097561 -0.59448280567286415632 0.17508338408477186476 -0.83122114815897218953 -0.76976718867511895183 0.31642913127327298994 0.88600064657897825704 -0.8828788996446996773 0.57125005884739854523 -0.22149721187693560687 -0.16304646559523061633 -0.38925535432706626082 0.065698651376826511239 0.059344528448235456253 -0.15689404889534608323 0.82615032949325084566 0.95326794292116523444 0.11299121540316248158 0.38617598248457185584 -0.64732108418620137869 -0.54770200779462574481 0.42551177683062868518 -0.87649040458580995683 -0.034852834598936288657 -0.65870262424809600255 -0.58489351631550690058 -0.1814843141461741638 -0.64887108890149014506 -0.17555193720715389638 -0.84307761200030051363 0.92393811315293206121 -0.029598427237062407968 0.57872527907797532976 0.89014345391479632319 -0.94584439430472388999 0.070158045267424640201 0.89426351140235116333 0.91758531718609548378 -0.12312553535675685445 -0.31943145880630785527 -0.12904285339232246521 -0.46267874254518814858 -0.24559616974643239118 -0.1410499298254974665 0.50962973733180461089 0.80735971970835485045 -0.11101541815199089669 0.61914721803680983214 0.22511730619612579929 -0.14164298994981572299 -0.060562601221162637444 0.048772621075115374367 -0.58398930779889357545 0.67845542348199772142 0.93837932690677172687 -0.091341000293355900652 -0.90768526020720341485 -0.28135737580952935311 0.3219341985349686297 -0.84938282952721344543 -0.51026099895580312449 -0.7002203002283426958 0.77611772766357400855 -0.41184966424485658365 -0.88617672869774133382 0.86993011651762275349 -0.82006675633874226428 -0.89026509383639740314 0.42263496543815803896 -0.69512102058226243884 0.1685774842940508389 0.34405140315873117274 0.17153687904831160793 0.33535503681276579435 -0.037170807495972457701 0.65870287460714660455 0.31686205905318409748 -0.63327476608309685169 -0.48322129473454533688 -0.029585712873385849875 0.92127096166499011787 0.81738073364274632659 -0.27205849956936134504 0.59240810571473256907 0.07496447737860845173 0.32024089437036096228 -0.97217433292553012691 0.96371654649679761029 -0.4993385218479402532 -0.52134354634472424017 0.26509455036689821839 0.19265685698377832402 0.69192841279884742534 -0.6883803613050014647 -0.78322639278480599145 -0.50065507832673561417 -0.39776985449207602485;-0.19981703735612862949 -0.48164219421910825503 -0.13007217036504353791 -0.45397785741598611908 -0.12687686402078285353 -0.58915988107153360875 0.38809234947541515481 -0.91659289327121951096 -0.61908835056687261389 -0.56779503217593974007 -0.84414325326089489909 0.72081703108738248709 -0.89337565260781570675 -0.71103387913400006859 0.26612908659675610368 -0.055058935611841559876 -0.6185676267989151933 0.61015817202925759499 0.3655528962134606541 -0.42756589009033596493 0.21273948831923078506 -0.38095097808863925826 0.082222824517985099169 -0.9273230612330128908 -0.72385670675931546025 -0.22951102025392705608 0.53572377719277552988 -0.98335460081181169656 0.80667373784798590552 -0.15189007716681882099 0.33162808852112413138 -0.84929335073265288525 -0.12858026265377917041 -0.21663360561609487642 -0.68222576184968419799 0.93927421984499059882 0.21337354585191758982 -0.35365712080102607029 -0.10954160259325150528 -0.093969888389544661833 0.60813396676051012513 -0.27480505712501451798 -0.022495195109421866481 -0.98031647701849977672 0.093493590336461374068 -0.50673162423627970963 0.60216709769558174337 0.83571600308720150885 -0.50951128829024605604 0.422633793877928432 -0.24434311561724300632 0.93381614631570575291 0.086956910987408625457 0.98913925352738829577 -0.4933267701305600883 0.20774256077856384506 0.17971724415516204809 0.83808086557487848633 -0.47319417417015652294 0.89564855200417725634 -0.91115591645210991523 0.35310595557473600792 0.44884482183660628918 -0.069394998535526525307 -0.40288343524882713753 -0.076485245032576518187 0.98801488397194092705 -0.84824257717377293808 -0.71520887639803087943 -0.71060171519580128674 0.079504679836775421498 -0.36257448728394908732 0.92235270923599899096 0.68580629653218294628 -0.55406429449830385536 -0.66643941296905595539 0.85074150259014169606 0.22439323927855023277 0.54545802300874668411 -0.37741801280322390122 0.77634118502654503313 0.90070582438494295463 0.6503394090665680638 0.15090129497657098212 0.051258436866039785995 0.62080468072991745743 -0.13386756269018001975 -0.47631795222271855472 0.24511194160775492956 -0.57651061817676951815 0.073462127303829699576 -0.8176151510142010137 0.30198777560421385946 -0.7818077535043546078 0.21857285148619459703 -0.85339916365613988081 0.22449213593731898175 0.80257752843788687791 0.012301229458286183638 0.678785151267349951 0.77309829269137619878 0.52252365253203492124 0.69746698546619045889 0.68845382033766877594 -0.74692351924386635176 0.26044356468128787574 0.62344149972844020713 0.26480220955918370995 -0.28698572936069116635 -0.9114820730326740339 -0.13544929436073793738 -0.95379786342093242357 -0.91869702660241614467 -0.39994629421890731669 0.129855512421422431 -1.0009912181432003564 0.01512268677823164556 0.24914752453072969152 -0.2785511764766649967 -0.63896127228807386711 -0.21317418724833528398 0.14932012599932978358 -0.62286498568667303388 0.81043082424066514857 0.86100798344207074564 0.34619431034038877781 0.92207933025231791913 -0.66349374368231994747;-0.64628921720582244159 0.14081980313693370777 0.37516785180433448454 -0.92611015099946469853 0.68410733671012902146 0.53764968976705018733 -0.56655168209927575518 0.69349140421975219439 0.092230455542223185872 -0.99826463024582490213 0.88907856667217755042 -0.026696670964179193553 -0.36235089367005579586 -0.21035815299184684735 0.45540431566882683123 0.25236977596658660694 -0.60179112364460762841 0.35143490788981596173 0.0078541907399217875119 0.75443595958096443255 -0.7276973780088941135 -0.54476466644158061392 -0.68427002828152361236 0.94673973416572176909 -0.48555677853358575335 0.21688463782595301943 0.78669001341826738649 0.78029022643814016647 -0.26380299825745018305 0.32657231069858455585 -0.14737187005963189868 0.88937677873409248797 -0.07845067061769689376 -0.33977308912212905723 0.29178244725989244124 0.62183456730054709194 0.3156585182780062282 0.98225506924372418815 0.49102111041579032946 0.55844392761750505372 -0.39564434248729846155 0.33632090127548713854 0.12734587517472589768 0.8009354213970080183 0.022043645158828395481 0.77236442080640566044 -0.34935010809075578431 -0.97824125220437041506 -0.59742894248176314775 0.35807086363764700776 0.59169511977032329675 -0.82117637871184201437 -0.51321197567051424215 0.20586030900476748329 0.85788758493929329063 0.84740195305106835733 -1.0065991973492098843 -0.51520321918918832171 -0.48142895047108286155 0.840395594490629394 -0.54473206173012278519 -0.20311583301718369454 0.10816287536778960987 0.78569783949397697942 -0.80454903513929332259 0.4838072224727388293 -0.57148540263234615111 0.14791978535274893924 -0.99047669940813709566 0.16282226367870750172 -0.13799555377109837262 0.23932544137232553139 -0.98940918465725080644 0.47246521685681369673 -0.25783204042198609729 0.67107387107100402446 0.25152003937272621181 -0.82692123267875661252 -0.074261523509761076522 0.1885061021886605126 0.44065229964314583944 0.006079652140209430497 0.96043703521401901924 0.66014780788815141666 0.91965129116695154554 0.2542432330340347324 0.77742506678660339148 0.8005745588223390774 0.39351203718350885596 0.33916966677854964995 0.35105439914765229625 0.83784809178447861022 0.085011034417868447388 0.71289988990666464108 -0.12480185843795216227 0.73958456046864606837 0.40031275067960425673 0.27545933862913607459 0.2616617935190034272 0.023290296587544934842 -0.21059167534540904065 0.049347343778662525193 0.62986658734782730029 -0.51986194511413963415 -0.20308045084395645596 0.57925498949937137549 -0.20485709342103486374 0.16703486010574691845 0.8477752926286218349 -0.085094046204168952152 0.1243635449122897918 -1.0053648508256751715 -0.065154419811428235243 -0.13283423106421446414 -0.9788182317175502245 -0.14263259108754569593 0.073669797862551872347 -0.61486313635595246652 -0.44348647596012397143 -0.071506505607279960413 0.54912053690668294337 0.12327546223499148692 -0.86502577431435845323 -0.34270286568636104674 0.87559503990778297933 -0.11975909534698007952 -0.12907733500450654929 -0.95466157736305534698;-0.86502336496675003019 0.87444174576611000127 0.98339464039693291753 -0.10308420263641915327 -0.98421925464104753623 -0.3289141849724757094 0.087146177265817081903 0.60579131885763093379 0.078271518282209573414 -0.98678748982757635844 -0.029344584214572311254 -0.14646022419418214255 0.97015972322524279825 -0.18087310460578875926 -0.57978502785215546567 0.1466683635063745772 0.46820402278830397513 -0.056066196576475713087 -0.95382266414790506381 -0.7200786332207194107 0.53586656614856442715 -0.01712096245213823309 -0.73370774237095814918 0.64691080079005969239 -0.42648293537014803078 0.7299919187984957869 0.41348503048004614513 0.3473070905810604625 -0.20081229419237511813 0.62280183188171256425 0.24207593766990220807 -0.98147827687648137029 -0.86416724969847336091 0.35519679299667972217 -0.51826164937416296929 0.21762482353459922102 -0.10064954140674431393 0.94466266423035194499 -0.80883489446494971631 0.59615950827302133241 -0.84171130024111784351 0.077302944268539564021 0.80312605068113684936 -0.86935228233888484084 0.2414456152740946937 -0.57130913332776578351 0.17262742182348600473 0.25104581945907500362 0.17589867218978172403 0.2917515597054411991 0.013496033678497498798 -0.37697312234432001077 0.54592289564832774396 0.66109169630882980151 0.54081434270062289649 0.60760693313844882368 0.37133548421967232933 -0.90307449219904212256 -0.93365091700345881343 0.91897481126264457529 0.54484119249476603564 -0.74917202953583927894 -0.53250094729227637202 -0.22082371726185456851 -0.92015137099912158725 0.5305272233819784411 -0.33431446523375552005 -0.064747963866629731911 0.26118312970531465389 0.98364238925310676365 0.49814152300659908512 0.40390753257739531179 -0.68596009132747415293 0.11715218738983201874 -0.2960705031771670992 -0.45835144727856902414 0.81468561406242323564 -0.54756378524777615802 0.3856647815178386729 0.049881832016667182472 0.99266563320122114256 0.39866736930948354356 -0.012778166923184119952 -0.91884579077070349662 0.94722105190700212063 -0.80775849650572739691 0.33520070408725666233 -0.29375850503684897141 0.77382501906588130325 0.57905822177664112438 0.39144179467258122251 -0.76340605359926061446 -0.91198102826071192339 -0.59523490955196112218 0.76190246271815076362 0.73186907239870713227 0.92465962142735280693 -0.36348493603731490964 -0.40515700176201141502 -0.70253850892776514847 -0.42799908662270813586 0.37681176191969689704 0.49427425013766534967 -0.19253776094801766661 0.36226515172624584871 0.29939861065850159605 -0.58274698673285851847 -0.91430100230588307042 -0.716308248599811348 -0.39488907129835770782 -0.4834049522495238449 0.38347750016924142535 -0.73543388729047398655 -0.1051263733651355281 0.43134871942228691921 -0.88586614022689191827 0.18701637292791173373 0.59686293463805406567 0.51148362699335581105 -0.625863204863365441 0.10292967442901979069 0.28725513292518844999 0.31679305488619746711 0.16528306515002233468 0.99493732171771265271 -0.27924565473436513408 -0.17889032511206193199 -0.5001569863442580921;-0.85052115076202772226 0.88643116345744654705 -0.77716907217045050338 0.95739274839042987075 0.19610843437140076939 0.99424602185140376065 0.99884225660711312145 0.054773286348746133556 -0.010933519981298754978 0.039615529144102094861 -0.9386453937744934084 0.59921132714886005122 0.56852946022680672655 0.20701220005004025704 -0.22480591376794775704 0.077760007773281764054 -0.6744203780535549253 -0.54738816160028702651 0.43389471263097834086 0.58857083944533872266 0.59951085681165738883 0.41724577681177416055 0.5156028303014815739 -0.39281254631476730799 -0.17563520803918067359 0.12771896855818146155 -0.77840372061713192231 0.76611850483961307923 0.80833361202300357817 0.62148112252875531425 0.19021623079688707025 0.27811704449006269257 0.93835407072735244061 0.36164495399881668725 0.52365348064957562002 -0.41743879434968034214 -0.60155506433494265739 0.53279207301019027021 -0.41101518196140179873 -0.43836393194327882838 0.69225932803243372948 0.82036866943433972565 0.40646072372390151806 -0.38374638879968459015 0.39930928677894955703 0.25302028585426911134 0.35621381074316471604 0.92616366556747786731 0.080382005093560429665 0.76961408812818488112 -0.58272809350985377286 -0.63286197081856576663 -0.067686927079955841458 -0.26819318633947519803 -0.35988651994122472511 -0.35574562442289259234 -0.09437193737443227981 0.96482990637619181484 -0.21871245296533695091 -0.35486267924226916337 0.5880639945784813527 -0.048711004558074089132 -0.43785093527949070502 0.91136889538304544089 0.13486811634687395633 0.0035330132291671624556 0.18984215609498453214 -0.88303839998786415322 0.71923826910266763779 -0.81454631361207241458 -0.42739251031716019025 -0.72696026475923780641 0.070535593595300205561 -0.47133886481166187288 0.85307917191018767245 -0.42387400326324736755 0.39981013240990154189 0.74568551304457286744 -0.47861981747653853381 -0.089415716125909122658 0.7852301507387134949 0.57702982337806185686 0.23646341131881087883 -0.57291588799393022846 -0.77101219224369366145 0.60235112759864006815 -0.88012826448137815305 -0.34569375090014270446 -0.65329497931425872803 -0.82589200064457368722 -0.81146933866107651134 -0.6565238482800397346 -0.44264777673300814698 -0.11050338335527970512 -0.22926509799360733632 0.28725905122384942647 0.63342861415290119265 0.31808088586183053126 0.0047523820538380298281 -0.90158287262864078571 -0.24108998753071583798 0.083944174095382254053 0.63960700623221311556 0.42598236725049909435 0.037640787874945229319 -0.60380156811502105896 -0.74180779718627842811 0.13026985933599291578 0.98651613055722053858 -0.21903045840572957226 -0.77170385375666117334 -0.15522455351882954999 0.27611997435510682308 -0.29467354056738459533 -0.57715956873462503918 0.25398568289088407912 0.37695079337659692653 -0.36202427350394916772 -0.019623476586478446476 0.91530487944173588577 -0.04576781204345569537 -0.00014856675777162191331 0.55165030915254931188 -0.83075325550968937005 -0.016026705485315418526 -0.67277437450358046345 -0.36023564137104902017 0.28729810601154304184];

% Layer 2
b2 = [-0.048676261864556362446;0.78022994303619952472;-0.8233831398077298136;0.88674671224218870602;-0.82114645787754714235;0.12837071404348418535;-0.38591711157888330952;-0.77672349348928992896;-0.99886346237874679144;-0.82669467437477273108;0.4941008246403963966;-0.90058861326739014785;-0.62820233942135939031;-0.32945457021333779402;-0.70614844950855237826;-0.92306474787250492042;-0.40245671043445302439;-0.78772803727778883953;0.85205931302160742291;0.57663417687396933964;-0.81915456900518024419;0.74081128552290742562;0.052152289749385793982;-0.22406278414588712278;-0.025907477374421138128;-0.53576489948367622684;0.15552826223996696342;0.71995165363010193982;-0.79479849585959982949;0.61699059962412383662;0.45460874081358393362;-0.69153369561804711729];
